W1
5.350043799993910165e-03 8.266254990091207594e-03 1.007248269321794204e-02 1.142634590836416261e-02 -1.243215117399752538e-02 5.179722384224975072e-03 2.251727453184237341e-03 -1.456961959891875033e-02 3.566104413425658353e-03 5.518751324594554052e-03 1.376343191574449024e-02 2.848587644637991072e-03 1.592771131130901047e-02 -3.392668394914066018e-03 -1.031102314930666501e-02 -9.780531815675437210e-03 -1.169524986655272152e-02 -1.887705935752868880e-02 5.402437082141845794e-03 -3.129022400188241019e-03 -7.479314664391103692e-03 -7.260788941054129378e-03 1.129467064123223022e-02 -4.853136211677717103e-03 -1.275793273983103979e-02 -8.942010166499234775e-03 8.852231359168015110e-03 9.967126527689013776e-03 1.315256682323750689e-02 -1.856927978148419783e-02 1.644997489430324649e-03 1.045813162359973333e-02 -1.783172814416559768e-02 8.831630053557108437e-03 4.773354213048223646e-03 -1.480250412615140287e-02 -3.990809234080968694e-03 -3.216214224610375316e-02 -9.458680547892417759e-03 7.983921691450080946e-03 -6.605302710656661518e-03 -9.737191712841647548e-04 8.143983805177789498e-03 -6.455085120067968101e-04 8.337169347825877652e-03 2.812284479436010821e-03 -5.684487252066590911e-03 -1.159152228379315731e-02 -1.160613963874329926e-02 6.945816136130533551e-03 7.213088205088828177e-03 1.893540553826077513e-02 -1.949192089733136485e-02 -6.729895987901027971e-03 1.623542966344320229e-02 -7.125583066776286327e-03 -7.523740687373884489e-03 1.140931210961956647e-02 -1.080099060946561156e-02 1.392340741885061441e-02 -2.825788096936568232e-03 5.382357376144596313e-03 -1.708212199694343278e-02 1.664255588714911574e-03 -8.229627956867347285e-03 2.396582367666372573e-02 -9.099665802161507194e-03 8.416050962726356541e-03 2.835800833348643430e-03 -1.482378164393050902e-02 3.203208163333709328e-03 -3.176328132488861859e-04 5.947012475564463461e-03 -1.510891548884590180e-02 -1.215077911880169635e-02 -8.382951905530072398e-03 -1.241812474013040749e-03 -1.658016457773294969e-02 -5.437156108764115182e-03 6.939206877332846843e-03 1.260821963597190225e-02 1.145783940792445554e-02 6.498938829073137510e-03 5.485959967811213436e-03 -3.691927679196669188e-03 1.847465058904785781e-02 3.900639708731182698e-03 -9.678408172621454780e-03 3.140088049683515846e-04 1.136083970395580268e-02 -1.691148739277904822e-02 -1.513954910577059235e-02 1.792135689464030828e-03 4.694922639151399152e-03 -1.433141670973108253e-02 -1.388574853095469498e-02 -1.799181777726567219e-02 1.097175787835820166e-03 -7.551173787520748699e-03 -1.756062556762177929e-02 -1.790738321712426933e-03 -3.328479175497914277e-02 -3.490888849556349899e-02 -3.324810801287467893e-02 -1.781208174740948891e-02 -7.931932103601995951e-03 -2.089375502108125823e-02 -1.270163191694792526e-02 5.905368713302478747e-04 6.005102662113539352e-03 9.552060366114292767e-03 -1.227257718959716241e-02 -4.058548568182314929e-03 1.186263199422291255e-02 -1.082845135175078194e-03 -4.196333889368037556e-03 -2.701971048309546094e-03 -5.157088733799131477e-03 -3.058336495071432241e-03 -2.468211163734867347e-04 3.876552449242143174e-03 9.386955812344862163e-03 3.987966181229099516e-02 9.928788346241277860e-03 1.558242672365744638e-02 1.629283711053556086e-02 1.892099780387891325e-02 2.969492463365056359e-02 6.815775454569111130e-03 -1.795855822404297114e-02 -3.019571901466649305e-02 -1.758834255419768414e-02 -1.423972055957490983e-02 -1.770887417555717502e-03 -1.710561599821334294e-02 -3.133336004786042850e-02 3.866637416583591433e-03 8.141344605505362875e-03 1.725507295048343132e-02 -2.457663259054251263e-03 4.019854460232254872e-03 5.191477164252316506e-03 -6.713014480002048312e-03 2.147915327975553532e-04 -1.572738084000576547e-02 2.401884036173821280e-03 -2.249361099739594528e-04 2.149235203806849209e-03 -2.765193242264713663e-02 -2.073695000487224549e-02 8.335661689427365309e-03 -8.231320951417908302e-03 8.837114372340451954e-03 3.860935050582687406e-02 5.820738589958266568e-02 2.654167358356831000e-02 2.109220269339554671e-02 1.426860485983913766e-03 -1.705459595331271921e-02 -7.355592847163044024e-05 -1.320585778939604993e-02 -1.976842624982783070e-02 -3.702773065777897887e-02 -4.825383775479592796e-02 -3.420032621355235947e-02 -2.616351670258166510e-03 1.115545766707204357e-03 -8.218144492481992830e-03 4.504557268094945728e-03 -7.062019272919911606e-03 8.346594458229498331e-03 6.693299718011923999e-03 -2.144649757820655225e-06 -5.820387035633388384e-03 3.378750908804923053e-03 -2.527465934869627465e-03 -8.889265397754203199e-03 -1.894205397169623425e-02 -1.981869201556550608e-02 2.146928661948770134e-02 1.529911260612905333e-02 3.521171514719186740e-02 3.709736689427688833e-02 5.331552615055291239e-02 4.825701353884855743e-02 3.948022596551806901e-02 -3.281014604999549656e-03 -1.614579260593358365e-02 -9.144906184317560735e-03 4.880035719375064307e-03 -3.444427295606156819e-02 -4.335142521342934263e-02 -2.759801956851599264e-02 8.579640693440143337e-03 -7.112863447541886014e-03 1.426252752329651733e-03 -2.605353667820735266e-03 -6.016236478927816135e-03 -1.402753397181153924e-02 7.137965046524122684e-03 9.929732930503323840e-03 1.824369436350561924e-02 1.311222360093776580e-02 4.479862600107891585e-03 2.235782062254891307e-03 -4.288221203684629106e-03 5.945691121495762579e-03 2.025098827485231900e-02 3.855640512704629208e-02 3.345498165056326467e-02 4.132580080578209664e-02 7.161978582000849691e-02 4.835701164585861495e-02 1.583794253953940342e-02 1.447057956369101131e-02 1.319206732086433340e-02 -4.623843632707550400e-04 2.659135573294117011e-02 -1.477124605091201942e-02 -2.627670940289512577e-02 -3.181990227379057068e-02 -1.099580529417874472e-02 1.226811976682924384e-03 -1.579987568108626519e-02 -1.444490054854539671e-02 -7.774315375325972950e-03 2.065237696227389258e-02 2.025092680786699188e-03 2.684820661566663866e-02 3.331694033532749816e-02 1.864245536746298240e-02 3.612098644119359631e-02 2.224185612331603529e-02 1.793147199011640991e-02 4.015237355724206314e-02 9.778693426027487354e-03 5.494634241371038758e-02 5.844877386439791683e-02 3.942727362231462224e-02 2.617991430481619516e-02 -1.343605850342759547e-02 2.148797355015764562e-02 1.635667811407210542e-02 3.143992978330138049e-02 -1.526469845817811193e-02 1.096739817108253676e-02 4.227025793900511530e-02 -6.458790031292730403e-03 -2.659972764262992853e-02 -3.293608803074157820e-02 2.485858089127123728e-03 -7.164694007907859361e-03 -1.904485154669055373e-03 1.377032880514325423e-02 -2.197408402342426390e-03 7.134098218820868718e-03 2.529982108070137278e-02 3.828887273324759616e-02 2.562025874812850351e-02 2.191486095723823788e-02 3.368918770497818932e-02 6.435344902561293545e-02 3.356081492290413637e-02 4.011087920655549005e-02 3.007547986627009950e-02 1.887344628997218721e-02 1.333282183199008958e-02 -1.030566631446434150e-02 4.036479012961960433e-03 -4.076522801422792670e-03 1.411899918495194452e-02 5.374000725595325448e-03 8.450212597588076593e-03 3.663959946480670193e-02 2.526629668879792553e-02 1.211627307248653229e-03 -1.731976023684841937e-02 -1.769380914006672689e-02 -9.308755282062585248e-03 5.345546894864029730e-03 -5.915358969332791886e-03 1.198190197569690488e-02 2.050317635992084456e-02 3.488696242876679170e-04 3.040746241178529305e-02 2.681155531843814818e-02 3.780416044771970491e-02 2.621780933964580965e-02 4.584842933274027588e-02 3.067809420728718692e-02 3.377130579662934035e-02 3.233386346579257553e-02 -2.572477512883624903e-02 -8.016555210200196346e-02 -3.101351546918075519e-02 -2.709325414362439774e-02 1.329743763840842503e-04 -1.343532879488658349e-02 2.189346140936673096e-02 1.891669149599878655e-02 -5.034897399424188152e-03 1.629905525030624774e-02 4.597566413197104462e-02 2.781269614945713862e-05 -2.271523398984308731e-02 -1.914372660688087521e-02 -2.802876883608742642e-04 -9.790625026869692951e-03 -4.255517388953803520e-03 -8.639363854246876959e-03 8.324400111240526368e-03 -1.057557167134853739e-04 2.064914351802569874e-03 1.884655263489765434e-02 6.408661242450421243e-03 4.091147822840621867e-02 3.650443064854234920e-02 2.032827093171075961e-02 2.267051910731880497e-03 -2.961069624350336563e-02 -1.251960355269373937e-01 -9.339890587844010272e-02 -4.527881414898063395e-02 -2.699554061569188826e-03 -2.029408900857251202e-02 1.537640071883085609e-02 4.834036130583921342e-02 5.946037793718467190e-03 3.098166020598943499e-02 1.641851528790910439e-02 -6.870570477885326577e-05 1.437960274776595854e-02 5.348679521095161225e-03 1.803283843155188346e-02 -7.307328040062762223e-03 3.403458667942295054e-03 1.491797951698682102e-02 -1.315600001324552983e-03 5.289571420199605002e-03 1.622663242345778051e-02 6.964740762695482805e-03 -3.662213510740662537e-02 -2.977620368580040713e-02 -1.868238243000967108e-02 -2.750340588161458502e-02 -3.610075912701962708e-02 -6.302729852982431880e-02 -9.466496157863958649e-02 -1.311751663554218961e-01 -1.149017504300828413e-01 -3.132243362238173318e-02 -1.005603984649356200e-02 7.243015363191098940e-03 1.439415956846025642e-02 3.032791441862661350e-02 2.355231035511114179e-02 1.037078748580182869e-02 2.120272634689390756e-02 1.201884594046893906e-02 -1.179020802376756251e-02 1.247799597664526333e-02 1.287308447396509452e-02 -4.356458740113000952e-03 1.397164975958290617e-02 9.716220015663783877e-03 -9.330943303805874084e-03 -7.143653466911523142e-03 -9.387943189190077822e-03 -2.319137632629983056e-02 -4.340578908574097006e-02 -8.424702963232350017e-02 -6.736437767492327311e-02 -7.549270281382204628e-02 -8.094213567845079393e-02 -1.180447172106029591e-01 -1.083791156953471946e-01 -1.101316618316748042e-01 -2.376620500024161087e-02 4.219271377521085359e-02 2.245834353624996671e-02 6.677486540844353516e-03 1.005713793389122548e-02 1.736445532235366199e-02 -4.050922511964887354e-03 -1.226297497971546614e-02 -9.315364686469627259e-03 -2.539017907386900350e-02 -3.563261994208504618e-02 -1.457866748043917804e-02 -1.020111374974149256e-04 1.514962584241133330e-02 6.146223346637985814e-03 -6.570365535468688373e-03 -5.519533163379327506e-03 -9.453440563618915882e-03 4.296971863967725611e-03 -2.045174941987304429e-02 -5.552840932016093328e-02 -8.327466311348659389e-02 -7.740629305970908591e-02 -1.245434344161181900e-01 -1.119455901749479981e-01 -8.495939659547527278e-02 -7.075283914888164105e-02 -2.937857147460684604e-02 6.291787980922416978e-02 4.911823746139754032e-02 3.058750188498679176e-02 1.097797695802337631e-02 8.523832621062491649e-03 1.915554157455446466e-02 -4.087741601257461471e-02 -6.461029129744667865e-02 -2.733797751202862031e-02 -2.657491594795607232e-02 -1.151844210918546128e-02 -9.167427724784456972e-03 3.310369708230599239e-03 2.726493599349997556e-03 1.465946779822224939e-02 2.216570186298483236e-02 -8.826385738909989578e-03 1.760893413215559866e-02 -2.072281495176751115e-02 -2.049528015528446351e-02 -3.429616296375644774e-02 -5.811455906131394317e-02 -8.275091091704254997e-02 -5.603255237356762758e-02 -8.219977765177360896e-02 -6.990951943683573755e-02 6.421534063699390824e-03 1.863864529521189195e-02 8.279208636508060548e-02 6.760079328812799992e-02 3.059475695935185216e-02 3.642583410611665781e-03 -1.390071390224002952e-02 -3.538706661057167829e-02 -7.184372247691100943e-02 -8.199050001279324651e-02 -6.338518859266641103e-02 -4.763694520003596000e-02 -3.804371957577119823e-02 -3.781475718034316754e-03 6.908026295713637008e-03 4.632874008085814503e-03 1.621690299672857299e-02 -1.374533857310761926e-03 3.241975431397729843e-03 -1.318834702012536796e-02 8.872429335626789634e-03 -1.357246778649131604e-02 -4.576290631312451146e-02 -6.077765953010597771e-02 -4.458713718709859247e-02 -5.802721103474085124e-02 -4.201953941253646664e-03 -8.973757606064424949e-03 3.765473022603531283e-02 4.988375486893138061e-02 6.910784017669309442e-02 7.723229871909813304e-02 1.270876868552929181e-02 1.560381249084198327e-02 -1.619115454992871989e-02 -2.982077309354113845e-02 -6.327153287770580226e-02 -5.740325292713446825e-02 -4.401217292137070414e-02 -5.037111192765061224e-02 -1.178715967402969335e-02 -2.904484182222081320e-03 2.852213272332894747e-02 2.099507400350118097e-02 3.593864779800501948e-03 7.156330594275296317e-03 -1.715960389281652801e-03 -1.410793062257701368e-02 7.666206174118326590e-03 -2.055227714300942449e-02 -4.583369385557164999e-02 -6.426294938522128519e-02 -1.086159994040210297e-02 5.629323936464983129e-03 4.871204434125856603e-02 5.869509109220224369e-02 5.876589244848816340e-02 8.206720383919220707e-02 6.522478865732379838e-02 2.718249721781034606e-02 -6.424125485563506217e-03 -2.898371712375929707e-02 -5.119021687680702648e-02 -6.617690743339277315e-02 -3.811060936866499105e-02 -9.589936465838655444e-02 -4.495672797482622163e-02 -1.430337313742683844e-02 -3.869283749756426485e-03 4.030971587435739321e-03 9.386893242783869717e-03 -3.072369101093028187e-03 -4.392718293376428502e-03 9.083388363025537982e-03 -2.678549428148409208e-03 -1.034374385549256163e-03 -1.576806988288414341e-02 -2.957352516757979621e-03 -2.374976676120401850e-02 -5.003129622131544108e-02 -3.536859164442639897e-02 1.326821830776511377e-02 5.901011107576694531e-02 5.719348064157964845e-02 5.591527323347538631e-02 3.706839940797577310e-02 5.263500954187374375e-02 2.918369072804082379e-02 -1.748288695397290024e-02 -1.129656230847075546e-02 -4.134888057661610661e-02 -5.310862104114987686e-02 -4.936485220176674987e-02 -7.170647868594562380e-02 -6.599250092985743665e-02 -2.115534946748157466e-02 1.039479487408606585e-03 1.261724148689107039e-02 1.099294345024595318e-02 2.056432416816720080e-02 -8.090506987440987396e-03 5.020311057375003577e-03 1.354985769772950460e-02 -1.431975771011447440e-03 -1.079428139521791371e-03 -7.216142955189062437e-03 -3.854606428126454432e-02 -2.971047206568542404e-02 -4.440277856212064556e-02 -9.578762588554212308e-04 4.042164291704169327e-02 3.465037355213199805e-02 1.887029136549536745e-02 1.496523368996488523e-02 1.638605568759555695e-02 -1.034141251090259055e-02 -1.520216105856252511e-02 -6.419528907198354499e-03 -9.125757728153162732e-03 -2.067990484330926859e-02 -2.140491894121353961e-02 -5.424639902202645081e-02 -4.104227422808841286e-02 3.502327451878086122e-03 2.224738166554294030e-02 3.450665606124281998e-02 1.923428572065621553e-02 -4.536024167755382981e-03 -3.890255457029850612e-03 2.398856163333200255e-03 -8.686280118678004272e-03 -1.762246017518479587e-03 -1.853042379963518518e-02 5.172872250311491386e-03 2.864895791807501625e-03 -1.538554116252064362e-02 1.183178426728826067e-02 1.442877483467700991e-02 -1.322079433983996272e-02 9.222601726584728557e-03 2.348080739271104014e-02 -2.202840428454642258e-02 8.231946007501331555e-03 -2.502955487514574306e-02 -1.975586570691711952e-02 6.420254900786566236e-03 -8.115011868416437818e-03 -1.457345761816901224e-02 -6.028035149039183936e-03 -2.747685843037091583e-02 -1.276540017319849167e-02 1.515118732937925129e-02 2.539460856146472101e-02 2.683055795487620382e-02 1.190341370236416970e-03 -6.888553210569373086e-03 -1.844166241247863908e-02 1.248125453122397518e-02 -3.670413414264853298e-03 -3.892999142493661145e-04 1.080945436565655844e-03 1.545394737489714197e-02 8.559806365139782170e-05 1.713558647368686877e-02 2.734756348657520902e-02 2.430138059069749876e-02 1.424624435805083716e-02 -2.241513525182526820e-02 -2.903687247041571509e-02 -1.958024329653411388e-02 -1.436980781034697709e-02 1.312325550612448814e-02 1.306914878645002061e-02 8.622776568377199871e-03 1.958301282670205437e-02 7.049149756683127828e-03 2.517340287978381969e-02 6.289047030795092905e-03 1.010165146062314175e-02 -4.656196626851077588e-04 -3.945639324455318215e-04 9.725738223193372903e-03 -1.262817414773024192e-02 -1.032876024687119382e-03 5.233497591898031605e-03 -1.219566039632542093e-02 2.123996709061733330e-03 -8.869433483454019357e-03 1.148156134136072044e-02 2.063077539058011042e-02 2.196358288141167167e-02 2.148528788900326211e-02 2.897628951243523196e-02 1.335046115290417987e-02 1.021015409712108628e-02 -9.968399379175586078e-03 -1.060486990368664055e-02 -5.681835692760229053e-03 6.359997377619030709e-03 3.084096025453288495e-02 5.077763357910484998e-02 -2.341099263916290429e-03 9.914010880291986016e-03 2.549472795392683164e-02 1.702306722031615704e-02 -7.586473251019369181e-03 1.329198601254559520e-02 3.035058462924562772e-02 2.141735271239552513e-02 6.873796387027589390e-03 1.759701883680060697e-02 4.391870152911965183e-03 -6.655621418946721518e-03 -9.955873737601303453e-03 -9.580808465160829679e-03 -2.468878350052217986e-03 -1.573555719725857824e-03 7.632154200205561265e-04 9.046341704547777168e-03 3.533532989319003448e-02 3.003534520726603221e-02 1.862162669751646696e-02 4.008803800072836820e-02 -2.616892014364002612e-03 2.739579704631574936e-02 4.577148229220977249e-02 3.240698569221158593e-02 2.587129109417957151e-02 3.525786756377041059e-02 3.062993879654174120e-02 3.969763119386051503e-02 2.506511026351260218e-02 1.252332397481253218e-02 1.011624076677885252e-02 8.725304356501263972e-03 -6.051300501481260939e-03 8.610587549774759847e-03 2.029157372815067542e-02 7.742132224223227319e-03 7.946372217236251714e-03 -1.037137329393909846e-02 5.541669714181438750e-03 -3.363157437964793203e-03 4.158716276976654087e-03 -6.231016885666723799e-03 1.157888328439725736e-02 1.967153460166733408e-03 3.822643072612108735e-03 -1.948596485750225121e-03 -8.658930559732545482e-03 -1.147030204581436612e-02 -6.074569091549592492e-04 6.087905237118675615e-03 6.141657136832241737e-03 3.591481626873816412e-03 5.371937235520356062e-03 2.385623235701608488e-02 1.139329532964692467e-03 1.807350555121517086e-02 1.166812018720115272e-02 1.251579534023014584e-02 6.267654866937221771e-03 -2.221607966660135627e-03 7.460568949311733710e-04 -9.997333806330001640e-03 3.569854781934499914e-04 1.362621544839487386e-02 3.266116347349465061e-03 3.124288098544070712e-03 -4.150587608768019354e-03 -2.219343907863100158e-03 -1.996458626146513024e-02 -4.029009511241685008e-04 -1.819134435769156899e-02 -4.616177378146214816e-03 -1.708296671151634735e-02 -1.260865110359948513e-02 -2.199354575728458929e-04 -2.015332064177789706e-03 -2.329667451515683024e-02 -1.185162486805376933e-02 1.816507611736399228e-02 -3.336657520002141858e-03 1.198066163082755868e-02 5.285363256236436102e-03 2.295579105779701340e-02 1.861585323091441771e-02 1.285135549015055390e-02 -1.357476450704665771e-02 -1.318594740370906959e-02 -1.194315605978411160e-02 -9.892466704151492256e-04 4.574821163236882093e-03 9.936951769351810848e-03 6.788699531866226010e-03 1.209561755736414390e-02 -1.033487800232955021e-02 -1.082500438366124779e-02 -1.369634941270122044e-02 9.078106363373280099e-03 2.879113511320759589e-03 4.349486982837720561e-03 9.624760416278389796e-03 -4.491001553058691399e-03 1.501312581501774816e-02 -1.266468211209629624e-03 1.491995445098430982e-02 1.404243495168375211e-02 6.638055986058580618e-03 6.672579690709186558e-03 3.878054284354901741e-03 4.772524714684611181e-03 1.547699526926826080e-02 1.253642210314249821e-02 2.276792337887032728e-03 6.377258994643275961e-03 2.519196995441102833e-03 -1.345084539755270897e-02 1.388665931854341602e-03 -7.515970344094257012e-05 -1.137328295167379421e-03 2.315010030188944384e-02 -1.036137041973392812e-02 7.380475363297573288e-04 7.813711676710650283e-03 -9.602308038213490035e-03 1.173803371401331216e-02 5.610239150925420970e-03 7.031067738820657650e-03 1.463681994879501014e-02 2.007071054711189254e-02 -9.478152821439137302e-03 5.126651190040136703e-03 1.264019300319580916e-02 1.025117047709307554e-02 -1.378694868422144192e-02 8.872181638112326685e-03 5.183698394962644388e-05 -7.312983906740813840e-03 1.167832005036415800e-02 2.659042334064893286e-03 -9.303062172329160454e-03 -1.731277783343287968e-02 7.777283992642539633e-03 -3.096540914003110233e-03 1.023793164869490105e-04 5.404243408382995370e-03 6.697661868211746139e-03 4.347295173040727732e-03 -1.114197134538240028e-02 -9.642294278685610218e-03 1.027154637817718347e-02 -1.622537167518091350e-02
-1.118884759861356153e-02 -3.188163462645172540e-04 -1.091916528352712169e-02 4.220212689013732449e-03 7.989464241747358184e-03 -1.140660047084403501e-02 -4.836555458292125798e-03 -6.224913436248561902e-03 1.001301501445693055e-02 -1.433095265589377863e-03 -6.939889455400610752e-03 -4.772976502499171568e-03 9.408332968347843687e-04 -9.836421359416685356e-03 -1.690527681206017855e-04 -3.114919416054464166e-03 2.312348267092396038e-03 -1.526700683795614855e-02 -6.884413195816874685e-03 -7.078161588683446956e-03 1.149156914013760994e-02 2.288521243583765529e-03 1.630422411913036093e-03 -7.600910334636987176e-03 -1.085248649070724367e-02 3.285295017239813452e-03 9.323096814416122549e-03 -8.626696882438363153e-04 -3.537738564416672486e-04 -1.950299221991979009e-03 -6.058002492532459093e-03 9.996878867103847766e-03 -3.143731292433427603e-03 -6.655009801419134972e-03 -4.511962360397825736e-03 -7.835562977307045096e-03 -1.090531526351285613e-02 7.943702750265870666e-03 2.076432666133293508e-03 -1.735344086182026915e-02 5.838014503019520011e-03 1.675603379952462623e-03 -8.018943076698460681e-03 -9.516796090878397799e-03 1.045494667979898588e-02 3.175743206390965051e-03 -2.355713225587308980e-03 -3.781110089643620938e-03 -1.474891918366834474e-05 -9.015193866651215540e-03 1.281882690322884780e-02 -3.596166137092100183e-04 1.159496951821701975e-02 -3.476023076563679835e-03 -4.059670122208086998e-03 -7.679457862326653436e-03 4.399072125441395517e-03 -1.775293953592568461e-02 -9.966642431250685719e-03 1.211218747302862837e-02 9.962541569674165584e-03 -4.196624128552890916e-03 -1.245455148502700761e-02 -4.025801486998967053e-03 6.536860887524183726e-03 -2.709746650811098011e-03 1.366912385355650329e-02 -1.279195021234568949e-02 -2.337721681921465979e-03 -8.315025488811030041e-03 -2.318123875020493621e-03 -4.418971438376733188e-03 3.063659134875744948e-03 -1.282842264585028549e-02 6.462541165231306534e-03 3.174083259991583236e-03 -1.428444784153525167e-03 -4.118431136784647499e-03 -7.668107810676665949e-03 1.773937442380012566e-02 4.637986820420643072e-03 6.543503896468223432e-03 8.156241263519230580e-03 9.141852139274223021e-03 -9.577113722685553707e-03 1.013159052358425169e-02 8.159507858079369583e-03 6.291369183417421657e-03 -7.809592663490016150e-03 -2.923787404204521156e-03 6.140879904794043637e-03 1.673592391051550088e-03 -5.158055934697479070e-03 -1.233565243592463397e-02 -1.991713076665690627e-02 -3.078588393167284477e-03 1.408357770659644337e-04 -1.769517727931086554e-02 5.632556026995669957e-03 -8.689093577898066370e-04 -2.161439082956827240e-02 -9.788006917145226221e-03 -1.973013389831908097e-03 -1.122321788833991786e-02 -1.144670315628377316e-02 -9.255230492876702700e-03 2.187221112677366613e-03 -7.206143114381202350e-03 1.300924013659608344e-02 -5.123858394054828930e-03 4.176857969208731466e-03 1.166384588062099534e-02 4.389429438065870284e-03 1.576319453939892040e-03 -5.744471202741392377e-03 1.421893150493544304e-02 1.431565869631240594e-03 3.792553723536366394e-03 -2.057423619464881365e-02 3.108228160672057028e-03 4.251953727731893999e-03 6.833659167465008615e-03 3.719613503192606158e-03 -1.407322090823408169e-03 -7.574095413930978342e-03 2.142922289348813542e-02 -1.597607377658541439e-02 -3.001253999241879078e-02 -2.852067374005958292e-02 -2.534742297686479878e-02 -3.108638299677154646e-02 -5.351971618388185782e-03 -5.848323994458319401e-03 3.419746499511907515e-03 -1.942293941973337757e-03 -2.169343054833909948e-02 6.638377009381706342e-03 -2.058986727309909323e-02 1.684817832345327990e-02 7.904563264342705578e-03 1.333223892852333954e-02 -7.831210241457471979e-03 8.419026552573422376e-03 1.359223905683425333e-02 1.591845614363296283e-03 4.559749509361339225e-04 -7.777539620300126348e-03 2.673866303818953939e-03 1.209782900384127544e-02 8.442657571842249881e-03 -1.168840043328272897e-02 1.442875604339052820e-02 -1.395270467394572715e-02 -1.961360062412718756e-03 -6.907386995657679302e-03 -8.702921558825940998e-03 -3.214873098815460017e-02 -1.026117592831493099e-02 -1.539030573931700341e-02 -2.563666508238403308e-02 -1.585436166711799710e-02 -3.552629669914332631e-03 -1.403281273553654528e-02 -2.204106084989354564e-02 -9.698286636357649274e-03 1.039585326323115046e-02 5.717961539024119313e-03 -1.886434959326388841e-02 -4.947358552436327377e-03 -1.346087100443830661e-02 1.170584155741658493e-02 1.068506002737878643e-02 -1.239444451978016781e-02 -9.271192466146887731e-03 1.496157425099045764e-02 3.262640854433853776e-03 1.536155094036541734e-02 5.221685074622004971e-03 1.398591189384851274e-02 1.679220202853884403e-02 4.896936448791281218e-03 2.117745169445570813e-02 2.731959540309582615e-02 1.357785039417395284e-02 2.152497051540143425e-02 3.193538039355733622e-03 -1.348860120360351536e-02 -2.051185406978296016e-02 -9.569995872191022074e-03 -9.021964888908653654e-03 -2.653186209376128327e-02 -3.629220660790907771e-02 1.056577722549645673e-02 -1.797736192669946095e-02 -3.315957588902405592e-03 5.015007937765530305e-03 1.669421408910319246e-02 5.971243147043103381e-04 8.062520037026474004e-03 -9.240992928985067648e-03 1.802784714365555582e-02 1.230243371571102147e-02 4.193975601369036993e-02 1.622667114002514233e-02 4.651063422705630640e-02 2.215020280795815255e-02 3.440284701292463387e-02 2.524995798255283766e-02 2.211467066984155669e-02 2.448398071874269277e-02 3.406786385763810321e-02 5.312250820510172958e-03 1.966067007427379359e-02 -3.366589593959515812e-03 -3.034690842714252504e-02 -3.777017395896782592e-02 -1.581492850502540237e-02 -7.747478872341847546e-03 -2.073527015800858894e-02 -1.973191553538452062e-02 -1.396529838634548264e-02 -1.566530148687656637e-02 -1.859806553339586610e-02 2.553325798656384468e-03 -9.476536810654875506e-03 -6.486584112003079654e-03 -9.153114198795471793e-03 -8.866676488421858932e-03 2.713605457890569395e-02 1.561731315246729646e-02 3.285871603935291985e-02 2.935707667392239636e-02 3.666619561690992457e-02 3.632636999311443515e-02 3.690020277227666623e-02 2.390822402367006466e-02 6.157423413198610807e-02 1.823482120382502111e-02 5.071468024885063264e-02 3.457930131304230020e-02 -2.476940600096638571e-03 -6.751292777499460530e-03 -1.484442372637478393e-02 -1.888290695234429422e-03 -1.875493238609347857e-02 -1.323287267097453083e-02 -6.435689343651756003e-03 -2.227356324094263013e-02 -2.114247243430231182e-02 -7.806458999172871671e-03 -2.416379569406533132e-02 4.495129976704839887e-03 1.624374958036108735e-02 4.505798745613400109e-03 7.334391205005613180e-03 2.814764390761947260e-02 2.205053430854894692e-02 1.904555848406407764e-02 4.191369179468629191e-02 2.887467394387777109e-02 2.416712316916341460e-02 2.866159869090371612e-02 4.810471603353006637e-02 4.546770698235044761e-02 4.047199719525157446e-02 4.470209562073639703e-02 6.992674016345661742e-03 3.135661654529985857e-03 -7.119935782295883434e-03 8.735806817232507834e-03 -1.772479987979896227e-02 -2.958805410474004555e-02 -1.072768932048714756e-02 -1.817165517832655371e-03 2.358565450044413855e-02 -1.688387782579926777e-02 -2.535318264342831945e-02 -1.173839437606327869e-02 -5.650846029673851217e-03 -6.045932758131195364e-03 3.807314825493669959e-03 -3.950864065203480748e-03 1.731935322641360662e-03 3.179423098486886413e-03 1.668200319002809129e-02 2.425017925968485019e-02 2.178015160034947259e-02 4.027384081552447953e-02 2.867909736124495124e-02 5.078107402085670075e-02 4.477470815761559059e-02 2.935587142828512477e-02 3.688773000987912234e-03 -1.521224238764429249e-02 -8.621232362510512434e-03 -7.941541030751158442e-03 2.537174384204684673e-03 -9.103499330178980433e-04 -2.465731809587461132e-02 -1.316263195146032995e-02 -2.185789038404827023e-02 -1.363568985714534547e-02 1.437348825830186624e-02 -4.471541421824568215e-03 -3.719647211922041518e-03 -4.508473312295104528e-03 -5.085421104783370040e-03 -7.718035276374523787e-03 2.939932959142248833e-03 -1.199296220007376986e-03 1.381222225927296841e-02 -1.235508299831854619e-03 9.888187293563843044e-03 2.581692703080098062e-03 2.642814209062562328e-02 1.931366038271247962e-02 2.638150876997027994e-02 3.272759238725950898e-02 7.748662743763593160e-03 -1.411815180402858742e-02 -5.832160007858046280e-02 -4.420345724938828241e-02 -3.164142275183680353e-02 -1.316299250249815776e-02 -1.236050185694297955e-02 -1.073234065634377614e-02 -5.512893831157725591e-04 -8.529557968049472291e-03 -1.148304769065862894e-02 -1.118215440594285542e-03 1.015224021929109471e-03 3.570678096743556181e-03 -3.727033463599251149e-04 1.213371980224835223e-02 -4.952613442865511431e-03 3.559845401998889321e-03 -2.815860943862537498e-03 1.809917395446134988e-02 2.410491186615198620e-04 2.885582729427719866e-03 1.831670203977196982e-03 3.620691122434226920e-03 -6.357331267160459473e-03 1.693298932179486405e-02 -1.108343170029959732e-02 -1.933506353195171487e-02 -2.937345513665677935e-02 -5.250061535270506008e-02 -8.234666052053309093e-02 -8.529063366820796577e-02 -5.413018503131298426e-02 -2.359470287145013986e-02 -1.838307254036461447e-02 6.906179632292859701e-04 -9.187376785170602717e-03 -1.208542082107407628e-02 -1.102996272742870661e-02 -8.979035874345869805e-03 6.737258566015521871e-04 -8.085223091436045256e-03 -1.895732933986642860e-02 1.612910845995335369e-03 1.680249535875995293e-02 -1.734362838461039674e-03 -8.285716396025362505e-04 -1.254999248384694455e-02 1.094007316338000552e-02 -5.514185359505098007e-03 -1.451537562133044246e-02 -1.886197975520473996e-02 -1.802919065875960986e-02 -2.289029572710803845e-02 -2.077359987114679729e-02 -3.985600079440213689e-02 -4.829205870880892010e-02 -5.594382276954473765e-02 -7.771112722694499542e-02 -5.739942657010106697e-02 -2.112127629186577593e-02 -2.210749105435150935e-02 -3.634632145906931556e-03 1.022491459652118996e-02 1.354426003632189061e-02 1.388889244966506637e-03 5.324441104563402277e-03 9.828881156088006485e-03 6.837663187327745230e-03 -2.036994243796573859e-02 4.533057883239759167e-03 2.091208822264387784e-02 5.783013281771900993e-03 -7.512118669885533249e-03 -1.584622027128641114e-02 4.610392024834003013e-05 7.321003010616927882e-04 -1.858894792085084846e-03 -1.076371822356090441e-02 -2.894492577871533162e-02 -2.658580530559538982e-02 -3.677982837108528108e-02 -5.559922526771093887e-02 -6.114170850585574218e-02 -4.984314177526623368e-02 -3.591148775947332339e-02 -6.147847063622242925e-02 -5.046404776918221591e-03 -6.784505258103885189e-03 4.161773088449678693e-03 1.380404283255526245e-03 1.536035211611421099e-02 2.834464844531661004e-02 -1.750528518756340121e-02 -1.851750122627381220e-04 -2.947754134301178164e-03 1.035565109477737909e-02 4.308416434267301615e-03 -2.190945057684701765e-03 1.038965101972487079e-02 1.173400925794499013e-02 -1.489375645966662005e-02 2.048444286122070874e-03 -4.209162451822465525e-03 -2.908533411268317270e-02 -1.771263732367447247e-02 -7.394081636892117435e-03 -2.477655980403549105e-02 -3.486017287600628317e-02 -3.192221735509327002e-02 -5.857965161310050434e-02 -6.900774198345117905e-02 -6.948961551829996308e-02 -3.066093809951003779e-02 -1.949427314006790465e-02 1.889620432847247816e-02 2.245454808633081528e-02 3.574311861415376684e-02 2.552234738023550012e-02 1.883798661207810102e-02 7.685668627076692322e-03 -1.220972976396407679e-02 -1.750394310125808622e-02 -4.417648198102874964e-03 -2.613403651658818307e-03 -2.908226064956668036e-02 -2.041919776817954432e-02 6.319022772199047421e-03 2.763779621749045973e-03 -1.829283057948312722e-03 -2.427972015747791121e-03 -1.439289135101753415e-02 -6.104091809368274515e-03 -1.118266882017208801e-02 -1.764698720598661258e-02 -3.071953758536844284e-02 -2.822047565257716426e-02 -3.691849203615953784e-02 -4.290593721418100442e-02 -5.481256678695591716e-02 -4.193617556390825257e-02 -1.256524537203378492e-02 9.016715382050675617e-03 4.698811009345004591e-02 4.642081578425302085e-02 5.167223460903040688e-02 2.576733893362682937e-02 8.773196588285219616e-03 1.780524003686192319e-02 -1.470829100821781886e-02 -6.188587896918201769e-03 -2.190097259044439942e-02 -9.755731340171004337e-03 -2.719130711024688070e-03 -1.019750922228556799e-03 5.459700405953669608e-03 -3.283671349817357098e-03 -3.196673082311221777e-03 -4.485657930305315087e-03 -1.229978077307161384e-03 1.487856278060533874e-03 7.897818003640139431e-03 -5.882006182278559821e-03 -1.870079376827575579e-02 -3.052046605260567980e-02 -3.291846076409635918e-02 -2.795015610270961195e-02 -4.235735062273843915e-02 -2.315529293137402050e-02 -4.522530575315579331e-03 4.551077781311291953e-02 6.644788713009897041e-02 4.992731806950255480e-02 5.070726277309191288e-02 1.431610738360695155e-02 -1.669548665063298049e-02 -1.226308206242478216e-02 -1.057609595251082779e-02 -2.268976260247274751e-02 6.697812402425565130e-03 -1.149910362564005029e-02 -9.219142456666735291e-03 -6.541368769248295800e-03 5.367318999351516733e-03 -3.858608795861456081e-03 -2.528316877306353069e-03 -4.045024008203590080e-03 1.221032307830145769e-02 -2.995927036235017382e-03 8.607900337905814367e-03 -6.753084138908489222e-03 -3.393572514221429581e-02 -2.383025645996483810e-02 -3.465057086831541122e-02 -4.443557743075005062e-02 -3.572170548388479971e-02 4.335837573514415150e-03 2.552107862631014176e-02 2.080617120462719544e-02 5.396758149114530556e-02 4.729112648520170104e-02 1.161089994381919906e-02 -4.770726215285360158e-03 -9.592239216439014948e-03 -2.459016482649666394e-02 -1.218030196948469840e-02 -8.512610115668260008e-03 -2.078096399039491143e-02 4.565729492124361369e-03 5.976323543673819905e-03 2.830358952937366435e-03 -6.953962140502258213e-04 -1.994206435644255149e-03 3.054418934804654841e-03 -1.857960718141917541e-03 -4.639776857537926923e-03 -3.356039531836737741e-03 6.116568815907999328e-03 -4.439268602753894226e-03 -1.973677390286653066e-02 -2.353536459800283087e-02 -1.109688931158472544e-02 -1.956340730836448119e-02 1.297494992648802470e-02 1.487201683733260262e-02 2.885628362956117049e-02 3.245676575944766995e-02 4.731474129591473760e-02 2.181685529732424120e-02 1.644179594952577955e-02 1.252281363323333799e-02 -1.134046901106996151e-02 -2.278032141587631523e-02 -8.816371935157427120e-03 -4.888164003248312434e-02 -2.801224331847148794e-02 -1.086780807342806188e-02 1.113671135813412011e-02 3.254100308597781231e-03 4.848806237773681596e-03 -2.513448789060809818e-02 7.075876854117714963e-03 7.430141755496503381e-03 -1.127771001443053991e-02 -7.778443444090586689e-03 -4.330529468915982928e-03 1.884039939994755974e-03 -5.582353163056497959e-03 -9.855316569545047659e-03 -2.357582237086520635e-02 -2.993385308802992695e-02 -4.522835096243029394e-03 4.728151316082540448e-04 1.380942751172622301e-02 4.502731754712183815e-02 4.983775962895264922e-02 1.139958326005306895e-02 1.725629813183311365e-02 5.620952223680866604e-03 -2.174666116154835155e-02 3.012481912050544476e-04 -2.140391381953123465e-02 -9.983016849636226764e-03 -1.226212471807083988e-02 -7.101073770296935893e-03 6.710012104084210442e-03 1.791521790961584162e-02 1.039323293575859265e-02 6.143132667635820693e-03 -3.729768099051661030e-03 8.500271894827126674e-04 -6.579113530714443027e-03 -1.326926471544566041e-02 9.791219177079441699e-03 2.950541713311700606e-03 -6.734725996875548688e-03 -1.080414361939602795e-02 -2.563550510529236798e-02 -2.555654207270639106e-02 -1.079360652890621990e-02 1.340557271944810020e-03 4.239835658065366913e-03 1.749617574258814081e-03 -3.504623255112950409e-03 2.457040555870944332e-02 1.535963911089078919e-02 1.884301285042046595e-02 3.297585375875240234e-03 -2.345697454403946475e-02 1.280753045682292944e-02 -1.862536451895257725e-02 4.280911177483430821e-03 -2.308029021744129744e-02 5.875464305210355634e-03 1.263441020212619816e-02 3.388471179616039594e-03 -7.905218355082154966e-03 4.269931770420471590e-03 -4.351252570738452924e-03 -3.325193338380961431e-03 1.436854511188135307e-02 8.485309765469897444e-03 -1.399542104015987290e-02 3.893622610062652534e-03 1.708013297856672682e-03 4.408607800190358569e-03 -3.149715867713870788e-03 1.310912612961735724e-02 -5.432614904873722499e-03 -1.372799664108123423e-02 -1.786131567939908127e-02 7.345342793598020129e-03 1.436245045214288793e-02 7.694582326170677430e-03 1.783422479133557961e-02 2.830150826138117318e-02 6.853723149951127837e-03 -2.810595633538531032e-04 -6.826683752003069247e-03 1.865753603604024778e-03 4.647326666894618756e-03 -6.942313969016252091e-03 2.386273382830564511e-03 1.600448371747139340e-03 2.358851171594231189e-02 4.511896847087859541e-03 -1.067002839561105761e-02 6.506030623341825525e-03 -3.481823378600219093e-03 7.815917081143600870e-03 -1.365483978411154847e-02 7.390633042837636401e-04 -2.170530727407899373e-04 4.559390348769718805e-03 -1.425725314057191620e-02 -4.408658248323104462e-03 -2.034376343998964276e-02 -4.209656702607376781e-03 -1.256383474392286544e-03 -5.551719258190150781e-03 6.111189337808052742e-03 3.583638168082614595e-02 1.014503119463784110e-02 4.071300492365328982e-02 2.516309516790317044e-02 1.536906691464431235e-02 -3.564138774488889017e-05 7.121112047157034108e-03 2.196522948218900331e-02 6.663901445214174407e-03 7.320635188406691106e-03 -6.065688072016978821e-04 -3.855071250135275185e-03 6.095949683199225304e-03 4.234196203782088393e-03 1.890114095035987096e-02 -9.411025997372576835e-03 -2.027603410605947898e-03 -7.658759011189136649e-03 6.810137840758560823e-03 3.952500299402653995e-03 -2.717674794836856707e-03 3.483295033441289636e-03 4.154275248762860813e-03 -2.885815519427419387e-02 -5.013980270899480278e-03 -3.370521012162321951e-03 -2.494674515651398969e-04 2.169980359333243455e-03 3.682550665071798734e-02 1.072832406716337124e-02 1.467646922968419455e-02 1.136980262409854892e-02 1.984219903816124286e-02 -6.485265626682353186e-03 1.732975144675346019e-03 -8.649535429766120340e-04 7.663644178957373064e-03 1.187096845719911448e-02 -1.452544141061152616e-03 1.207052293635805726e-02 -8.439514112215343311e-03 2.676643576621584499e-03 -1.480509530426522141e-02 1.091721925040360468e-02 -4.485017347130203051e-03 1.736422332953783954e-02 1.150223008577002000e-02 -2.351748393253040668e-03 6.963447458999356965e-03 -4.849536165153901617e-04 8.227243615483987096e-03 -1.858352630723748150e-02 1.065065681506764499e-02 5.266163949950801101e-03 2.358998968378646106e-03 8.032723366083316732e-03 4.362599072412377300e-03 -4.300599993596944740e-03 2.276031468389703646e-02 -5.836425503005568741e-03 7.618865664200206176e-04 2.899938396420625401e-03 7.176812244215860937e-04 3.461416106152656580e-04 7.166849120339488684e-03 1.463257757902439345e-02 1.146410621166782037e-02 1.161555988966637802e-02 -1.590423251921469026e-03 9.881488414712235810e-03 2.259476979603835829e-03 2.220874607643559887e-03 9.632418012026175425e-03 -2.863427026815273078e-04 -2.899081422561119309e-03 -7.057322652896294742e-03 8.789590701520881436e-04 -8.497577316469645059e-04 -4.594220364794641964e-03 1.184195311412206825e-02 3.221242225452624914e-03 2.068778528382033202e-02 2.486489714676371962e-02 -1.757843143904056979e-02 3.923305923252090426e-03 4.695303549814700342e-03 1.678177372312975035e-02 6.132887676011094386e-03 1.174518739537633479e-02 -7.610130497618712402e-03 8.590496657529655272e-03 -2.102244074730552983e-03 -5.247529378036504787e-03 -6.479046681936065366e-03 -8.987658282543310728e-03 -4.984176208349536293e-03 -1.074118388117435534e-02 1.550255308744940413e-02 -9.240296889084391235e-04 -1.030423308013023002e-02 5.440092477475233501e-03 -1.044998559066467013e-02 7.054664004146744133e-03 1.366484839763878068e-03 -7.520008122984228605e-03 -7.018230003676488235e-03 1.875455412728970622e-03 9.563239264105727376e-04 1.074030287484521035e-02 6.176886172166795932e-03 -9.069591957503484597e-03 -1.448122821698128067e-02 -2.406340183502798588e-02 5.173555122123587972e-03 6.176929087491156954e-03 -1.361616355488714158e-03 4.689906199004422106e-05 1.459650261474772573e-02 1.773501486302775853e-03 -1.875006982205874168e-02 2.593108097327486566e-03 -1.013363328393244653e-03 3.699975054310728536e-03 7.922632409475166212e-03 -3.516942695990468715e-03
1.500357446969309040e-02 -3.678452624938891458e-03 -6.814617556950916186e-03 -7.739428080893196241e-03 -1.475003019465521113e-02 4.316445599825124817e-03 -6.617853169135098218e-03 -3.978822278993038655e-03 -6.693939622856807242e-03 -1.054005585641264696e-02 -4.826578876999097246e-03 -2.131148537786552166e-02 8.212253854705670042e-04 1.838726492625334871e-02 -6.682135774867649716e-03 -1.073957864727971036e-03 3.840952282909831320e-03 6.315149388325939049e-03 6.888802091069884566e-03 -5.463995786561294532e-03 1.268494192041194971e-02 -1.338788547439006063e-02 -1.889597357543253142e-02 6.965836224013531239e-03 -6.639689044556266496e-03 -7.819323795620480508e-03 5.538938446368481434e-03 -3.366982416014740152e-03 4.999744469013872421e-03 1.192850493154913420e-02 7.707059896940422587e-03 -1.419812510744823718e-03 1.363830978061869245e-02 -8.416702126791517254e-04 -5.288729737489147702e-03 6.068079164949885876e-03 -2.324079562060934849e-03 1.367683223529443833e-03 -3.975070186865941810e-03 -2.251026917671749075e-03 3.007195993081541660e-02 1.717399999443688929e-02 1.178598764092224924e-03 -1.066963433014042270e-02 1.289191263316251477e-03 4.663639242730137770e-04 -7.735029995899974503e-03 -1.089287867276928640e-02 1.029008758557013389e-02 -9.103279514658727672e-03 5.827621116263208105e-03 6.079939998026966108e-03 6.344933299427218780e-03 7.443230359027720212e-03 -3.336455629201897505e-03 -4.802685291645072789e-03 6.440845092443514379e-03 -1.393968059578528512e-02 -1.279934113660587168e-03 1.946648168693084976e-02 1.758261419902468160e-03 1.070043222329312115e-02 -1.086388107040359152e-02 -1.764375912777001653e-03 1.522517394262076253e-02 1.814675703836952231e-02 1.464995519595718373e-02 1.385801589597153265e-02 1.912504580618208314e-02 1.818562637427262665e-02 -3.405115439255279510e-03 7.632167859629166926e-03 6.803007172641014136e-03 2.690277543661855064e-02 1.084907617963598060e-02 1.555001307999379946e-02 5.523490401144630357e-03 5.722024679548643085e-03 1.655823495983928034e-03 2.404576829056108769e-03 9.332628753986611791e-03 -1.835123034459106017e-02 -1.130765655087374692e-02 1.853134410976730109e-02 -5.613203412827505456e-03 -7.532134244352102145e-03 1.477131650213078275e-02 -1.441747518125110518e-02 -6.886837606159719189e-05 -3.072961197803811013e-03 -4.222629823972077080e-04 7.500589569393773665e-03 6.695942470748004680e-03 3.624533080452856104e-02 7.576142811464270030e-03 2.596288941930671029e-02 2.374853812725032098e-02 2.622265611846751054e-02 2.485887420471041484e-02 5.334518988392921227e-03 1.420946098498783450e-02 6.599512449483585855e-03 1.461943090311264640e-02 8.221616008904034795e-03 1.670714173746290498e-02 7.205119934502161698e-03 1.367256939328673551e-02 1.574579916408973268e-02 4.640380999573479048e-03 -2.083174253190669956e-03 -1.511349959000934159e-03 1.115502016296017300e-02 -6.878668552092958265e-03 1.268447599290825796e-02 1.261881210897741995e-04 -1.466469005436771278e-02 -5.362289373877697149e-03 -6.664635202210093638e-03 -7.025177810643790446e-03 -4.014695439310244848e-03 9.420911603206126236e-03 1.112373304437500043e-02 9.771995546375894515e-03 1.260422325455688632e-03 -1.401126741742779111e-02 -1.420409769817101292e-02 -3.293081066459402351e-02 -1.676692102768672851e-02 -1.471865202566043432e-02 1.971694751781955229e-03 -8.451342480587964098e-03 2.798664169258988522e-03 5.333229660542306710e-03 -1.011083268833417410e-03 1.635478353571345701e-03 3.143673670989962504e-02 -5.506721825535416080e-03 1.272580272685646567e-03 -1.311028808700807208e-02 -9.866879397923012524e-04 8.554829184944025711e-04 -2.438750473092206675e-02 1.009663041386834985e-02 2.302758324077230564e-03 -7.912420375841527909e-03 -1.693065913948536838e-02 -1.093977747755397849e-02 -1.704671513345623265e-02 -1.817786880211047507e-02 -1.200930335387330634e-02 -1.877099975030959225e-02 -2.522763793270164576e-02 -4.283785849678435620e-02 -2.451123799660082092e-02 -1.411393720172228049e-04 1.528957175189992086e-02 7.641534890543484615e-03 2.429153433361110753e-02 -1.438109425559227009e-02 -2.566080933639652839e-02 -2.196707562157138027e-02 -1.784857584415528581e-02 -1.368932915461701025e-02 3.780156176312602550e-04 -8.777643480363353165e-03 -2.328772149152294121e-02 1.287465782980861707e-02 -1.526804503464959835e-02 6.694828685288240974e-03 -7.307882083271559706e-03 -1.489044609175192366e-02 -4.761538828227641039e-03 8.194777349553539203e-03 -2.606719671364524267e-03 -1.660873419340033741e-02 -1.330649741986178469e-02 -1.283215069642583590e-02 -3.744884501245082653e-02 -3.182234231411878306e-02 -1.807499543402536421e-02 -4.782406238309831054e-02 -3.336950963296315964e-02 -2.800813423947201217e-02 -1.857936995935494107e-02 -1.139445243884408890e-02 -3.309540969495781276e-02 -6.230373106198403010e-02 -7.586655467061097224e-02 -5.639900790862228952e-02 -2.985712904157257486e-02 -1.254894648433216298e-02 -7.685093951386459676e-03 -4.613244508593975814e-03 -1.803240789195138111e-02 -2.023605992006741530e-02 -1.951998933802004052e-02 -1.140376409967911939e-02 -3.642209110738711588e-03 7.455682524758169144e-03 1.334814635413244556e-02 2.622758685542461114e-03 -1.763683828556639188e-02 -1.910425913103936529e-02 -5.377160390703562137e-03 -2.975110859677671665e-02 -3.227299164825539468e-02 -1.380341694367013573e-02 -1.911027349285787311e-02 -3.717246650238537758e-02 -2.652659954201791459e-02 -1.867871737082249170e-02 -2.201600467848283116e-02 -3.117048742589817456e-02 -4.169492912249669198e-02 -6.403352427281733261e-02 -7.656783925041404926e-02 -4.797217739111429152e-02 -4.715504463417222875e-02 -1.458396246750010700e-02 -3.154443584827225106e-03 1.317803785607082195e-03 -1.716512747890740903e-02 4.411350425415743078e-03 3.643663293021173755e-02 4.752991279826724973e-03 -2.275670267806707402e-03 -5.157038459408375131e-03 7.687300847787333601e-03 1.024770192921174716e-02 -2.364141347761001058e-02 -2.844039389786503363e-02 -5.097982447740626033e-02 -3.704010211978043393e-02 -4.504412666603190701e-02 -3.896971687667872414e-02 -4.835787633086256754e-02 -3.586113328979963905e-02 -1.033269665376513290e-02 -2.063343353175355055e-02 -2.823261110243815639e-02 -1.445571168545196038e-02 -3.459530557777876214e-02 -6.723868423010298523e-02 -5.555931623014883497e-02 -2.048109597808882298e-02 -9.754429978862375061e-03 -2.035153174563037251e-03 8.416646035454182842e-03 -6.712059474946287414e-03 -2.573098390346091613e-02 6.293345665136829831e-03 -1.360086043370873016e-03 -5.473228677948803987e-03 1.020594449737333154e-02 5.732677891605988084e-03 8.920164417504215402e-04 -1.767851495515644633e-02 -8.615505766758018921e-03 -3.105410610664734519e-02 -2.029909970614488662e-02 -1.990315491451967803e-02 -4.028704598982361940e-02 -3.178060683260619523e-02 -6.027018691154164415e-02 -1.598383956748387902e-02 5.527910876711856353e-03 2.533991798042227548e-03 8.033412484062033704e-03 1.788476449001464436e-02 -3.043908343920587439e-03 -2.174705729057401643e-02 -1.039728883170316399e-02 1.027257386471771422e-02 8.570150981399019680e-03 -1.463807805482051153e-02 -1.031547457066971964e-02 1.417050717058688028e-03 1.024801873216180798e-02 8.171040290345928797e-03 -1.713293179598196839e-02 1.528586893784660613e-03 1.094200468020463911e-02 3.114052194998003387e-03 1.107129614279676183e-02 -9.878952407620296763e-03 -3.717365880465228062e-02 -2.526226820727390729e-02 -2.979038303840165353e-02 -6.291340451475206479e-03 -1.621879274613155161e-02 -3.292116209694597589e-02 -4.054818144025659765e-02 -1.446092069743542489e-03 2.208737687371674710e-02 1.083146434817498435e-02 3.413648565221446413e-02 4.045962037796798499e-02 2.037521366891744193e-02 -2.162614328995345926e-03 6.263558060251372267e-03 1.158072245380526062e-02 1.179983975921032428e-02 1.308302289299594773e-02 1.719675282122522545e-03 5.967941409831442265e-03 -1.762398896592316973e-03 -6.650859966526257751e-03 -5.394638417120217050e-04 -4.735380651360933044e-03 -6.139880586798910148e-04 7.955016600454428884e-04 -4.132025064343019735e-03 -2.784254066506568811e-03 -1.459365847723097590e-02 -9.426535679068318713e-03 5.564070948068904586e-03 -1.941360153680365616e-02 -5.374055807450382055e-02 -2.221774653559093621e-02 -2.481088022141457114e-02 -3.819868969058608232e-03 5.317520902142302414e-02 3.879250689363333143e-02 3.065560978817573681e-02 2.293597666425877674e-02 3.595895226784808212e-05 -1.687270384930665296e-03 9.125079713770762463e-03 1.807562002231124110e-03 1.671617147486475011e-02 -4.565369804505195646e-03 6.714512003296952726e-03 -1.327808590403556973e-03 1.462468699517159576e-02 -3.724223494885808578e-03 7.228857564809533336e-03 1.340594946504882097e-02 1.333389673498539853e-02 7.299705360135597641e-03 -3.781460728557353278e-03 -1.774197969625171054e-02 -6.753080099863211297e-03 2.036859041018423272e-03 2.687033549346033202e-03 -1.975161583110956326e-02 -3.032181031005239460e-02 1.360938070127125799e-03 1.796514879692956770e-02 3.271522322239503455e-02 3.998733428302743420e-02 8.505527778502920688e-03 -3.136469042965214522e-03 6.349538686081719271e-03 1.273845718351260606e-02 1.351350841491483559e-02 -1.755671451238081590e-02 1.452108782196241156e-02 1.654172698467859266e-03 6.760927896990268429e-03 1.369376918159181770e-02 1.611214504679240461e-02 -1.795994925524992472e-02 -4.556698746502062941e-03 -1.040143587715257681e-02 8.682096990248001911e-03 2.269639436976994464e-03 1.448303108357995410e-02 -2.491244757822002730e-03 -6.283293601282309224e-03 7.608647198019344478e-03 2.111321883810056432e-04 -4.623426913879423667e-04 3.995604732024839872e-03 -2.263065274087349039e-03 2.498523634802135920e-02 4.709501401216246996e-02 6.090456176463435872e-02 6.965061568044775102e-03 5.394518192974518365e-03 2.426427710245845568e-02 9.163572957351090800e-03 -5.448784991159054056e-03 -1.177613478007031407e-03 2.899186586025220315e-03 1.701721375210112986e-03 2.067951971649638690e-02 2.100998276002151097e-02 5.129399441507848101e-02 3.026108100389089672e-02 1.888138809335727485e-03 1.192973768631343592e-02 1.113825049771960222e-02 -3.825611929034327795e-03 -7.558843329155163181e-03 -1.985655906957479403e-03 -1.566612418103942739e-03 -1.343934491104713420e-02 1.190877393030035335e-02 3.659303907253929483e-02 2.480680197082893793e-02 3.253635487896654188e-02 5.876995700195604411e-02 7.633373501472939804e-02 5.442766586768364029e-02 4.709054331504865243e-02 6.998412015156996180e-03 1.276746314322705321e-02 -9.076051698197612483e-03 1.325356747986640264e-04 1.113178114971654677e-02 -3.139519958816856110e-03 8.153453479662503903e-03 4.308980462205300177e-02 2.616524043248775674e-02 2.777902964632501803e-02 2.921482221596317930e-02 1.902280824033049725e-02 -1.900967758334816404e-02 4.949950365630160533e-03 -2.522716726501289617e-03 -1.100545597035205818e-02 -2.273213173746184488e-04 8.797732286805307750e-03 4.110022327986404163e-03 -3.047647660527379176e-02 2.880373080338161085e-02 -1.327174819508013508e-03 2.464527313891203691e-02 2.208856473205937643e-02 6.554803069572935625e-02 6.657634532164805052e-02 5.534152630210269208e-02 5.789453785966232335e-02 1.707220634739611484e-02 -1.024125653666205747e-02 -1.956626685830685150e-02 2.039666857057158278e-02 2.096830531990947002e-02 2.766187943873891705e-02 2.580728918706360134e-02 3.302766637437580532e-02 2.430315857909753213e-02 3.404213626714407137e-02 2.686210638035926163e-02 3.464174881260424776e-02 7.547936134097616573e-03 1.069631587144334421e-02 -8.185623244490081336e-04 6.760093938789401256e-03 4.752348117547482154e-03 -9.904605209563504056e-03 5.393503499425522651e-03 -2.820324323239709659e-03 8.931724377728109468e-03 1.910421157380688684e-02 2.410437629163763446e-02 2.348560986562242200e-02 4.450351953998784443e-02 3.393233490691602988e-02 5.600539402200247624e-02 1.494973629452893762e-02 -9.624998983835992769e-03 -9.284846435294763153e-03 -3.009635212821419430e-03 2.681973362085274780e-03 2.738582993233858870e-02 4.262702352903493391e-02 3.231874560851726724e-02 3.188260375815767794e-02 2.296267851535853041e-02 9.264964963775382950e-03 -6.733390987463624446e-03 -7.439756876180100755e-04 9.686050689934218565e-04 1.219761758053893291e-03 -1.298439850904500349e-02 -1.044327975085997812e-02 -4.155804497589061998e-04 2.432613023573218600e-03 -3.152500656855156992e-03 8.373603163949371736e-03 1.248724716370179857e-02 1.021340421093692823e-02 2.141857832412032842e-02 4.540163154973659611e-03 4.791531452629072679e-02 4.888025293871792881e-02 4.422701488105151152e-02 1.067025797030048996e-02 -2.442061558564913998e-02 1.080659422299966354e-03 1.951378787785663232e-02 1.413966529551532320e-02 4.787307594681430856e-02 3.376944141616291389e-02 2.414911620040644316e-02 3.904580066450539372e-02 3.443487841100391876e-03 2.004255360002920802e-02 -1.156044065005031561e-02 4.380842762476539615e-03 1.231608661697860575e-02 1.044239506719979969e-02 8.410227651598038701e-03 -1.472414598907354974e-02 1.710006537929971079e-02 -1.119920399104204836e-02 3.097607153982378982e-03 -1.820623075236482008e-02 -3.261388668985941777e-03 2.182231100404171276e-03 4.290603327177855419e-02 4.795730022280753763e-02 3.860622992449110058e-02 3.256291039906562129e-02 3.770096236598520500e-02 2.600000559470362280e-02 -3.958930820467397409e-03 -3.340907006085315576e-03 6.876293479304515684e-03 6.099795368349007069e-02 3.615502183675511211e-02 5.753952644347404971e-02 3.305241174521866138e-02 2.794244975295907124e-02 -8.471613860614133143e-03 3.051031297080866039e-03 -1.439244534621374194e-02 1.766019857864047429e-02 1.082482300319872678e-02 -1.062333684492046924e-02 2.971824398570574628e-03 5.360430173799730046e-03 -1.196639697456158315e-02 3.807368527746103973e-03 -8.412513802776383498e-03 -1.265857180341827849e-02 -3.202810665362084558e-02 -1.009294337533360106e-02 -3.991582814949271724e-03 2.459845396871144022e-02 5.242760296831472377e-02 4.925645825145343049e-02 5.346295619902391438e-02 1.717406571909779744e-02 1.593160253213979707e-02 3.831492849383635185e-02 3.207222961652471394e-02 4.995314684554922474e-02 3.214584169219186771e-02 3.169842497421636318e-02 1.451298033553484815e-03 -9.865687227684160308e-04 -2.295028036926908405e-02 -1.678768389238100012e-02 -1.425286569803187187e-02 1.467932155761833210e-02 -1.049103569006150198e-02 2.239003524103684323e-03 5.766415100686720675e-03 -5.097778318973785611e-03 2.965558179775334893e-03 7.332575373693086922e-03 6.095938144006249164e-03 2.363959412600789584e-03 -1.668641362303985298e-02 -2.885165742267233394e-02 3.743995195938155419e-03 1.486940866200056090e-02 1.830281075228310309e-02 3.809245930555447968e-02 3.471524284310185948e-02 1.462445924442894001e-02 -1.368845400559222727e-02 2.951884916834545888e-02 3.166607860910290034e-02 3.385826787935946464e-02 1.506691758604324430e-03 1.264074192543262858e-02 -3.805438141599998964e-02 -4.431809616114298217e-02 -2.539013363983916652e-02 -1.942387534270985025e-02 -8.483350644904661536e-03 -7.882776878750616736e-03 -7.151547688909848073e-04 -3.459907658343642535e-03 -4.961173808079400414e-03 -7.533084571596205484e-04 7.033022032465706657e-04 -7.241335355810856259e-03 -4.916456841665169455e-03 -2.843075934070453392e-03 7.429485231054697505e-03 -1.928360905463251396e-02 -1.699304358149603816e-02 -1.225523496200188120e-02 7.877758573196509684e-03 3.633279769846831098e-02 -1.082463768040518338e-02 1.332497652067099123e-02 -4.177411350999513974e-03 2.267311435355661917e-02 2.603042710531706938e-02 7.986605404042780923e-03 -2.075944338028324135e-02 -2.926328237869757487e-02 -3.993977760020959306e-02 -5.486178825558125222e-02 -4.324368005984346314e-02 -2.093120344635548621e-02 -1.939273033552103495e-02 -7.932084863719152459e-03 2.261789241923989682e-03 2.435148969565207027e-03 -9.081970744737233227e-04 3.108710321656276473e-03 1.934020094498588305e-02 4.617994006298932995e-03 -3.100773101055486706e-03 1.476391585758696830e-03 -1.501888584098963692e-03 -2.058204073922379265e-02 -1.295562270735192874e-02 -1.788380201747169843e-02 4.516242756733911817e-03 -1.045997614596182873e-02 -1.425489756378337143e-02 -3.094588390214646906e-02 -1.090518094654210901e-02 -2.200682784368194339e-02 -1.166591623454982588e-02 -1.678237582796229810e-02 -5.121738130900479330e-02 -5.838881181833512068e-02 -5.705237774410061580e-02 -4.032216547464730766e-02 -2.775509908677294829e-02 -2.448124474735748068e-02 -2.047762350150451535e-02 -6.122750089912704606e-03 -6.662388939832568531e-03 1.626450108679928976e-03 2.655385675111449073e-03 1.739817016122248775e-02 9.597246202314562921e-03 1.152605122614540172e-02 -6.695969675934086880e-03 -7.671756065621693904e-03 -1.854829467261341278e-02 -8.419203039581718215e-03 -1.055576046215719009e-02 -2.160844275903662723e-02 -2.919759423974067208e-02 -1.374027136953945641e-02 -2.305991395277489850e-02 -2.480038393912780900e-02 -5.042007994349519823e-02 -2.656847784473199275e-02 -4.003680724356163678e-02 -4.997823117063948661e-02 -4.573696732376793250e-02 -5.154854322229836250e-02 -3.889519041692664908e-02 -2.710656108947606668e-02 -2.079918352763859488e-02 -1.309319087749056480e-03 -9.783051529664870197e-03 -1.272949938828188930e-02 7.591885096047412684e-03 5.592203824028141963e-04 -1.151577313937849831e-02 -7.712172158000828344e-03 -1.001145441104348346e-02 -7.249686370898799498e-03 1.136651488229381730e-02 -2.291008744629463752e-03 2.564986946981587940e-02 -4.801387517112995496e-03 -2.756158692501546950e-02 -1.488993444960698583e-02 -2.236523223853016315e-02 -3.388864221920541431e-02 -2.212275895316334270e-02 -3.814858994174956386e-02 -1.001369674591435360e-02 -3.176173126951153947e-02 -2.551000314104915484e-02 -4.671286816717504231e-02 -2.515358938933998090e-02 -4.039851655578096529e-02 -1.633303296674654820e-02 -9.858324132486518190e-03 -1.267251312395863486e-02 -1.653303173650684868e-02 -1.412258406524432609e-02 7.909175536773116466e-03 5.205702118834127853e-03 4.800915232576440962e-03 1.013755720193692395e-02 4.363529911165500361e-03 4.176376968263515246e-03 2.853383189366615839e-03 -8.936847447185165133e-03 -1.166923104514553527e-02 9.316744079091326437e-04 -5.336621182683035092e-03 -5.162308365676524652e-03 -1.843189572211623856e-02 -1.663487979682870890e-02 -3.530307828347897109e-02 -3.657145962180698845e-02 -5.301304946025394566e-02 -4.070732784923393466e-02 -3.367676504459980041e-02 -2.113296389158919250e-02 -2.040902875312220963e-02 -3.199959326501615464e-02 -3.656552110142755746e-02 -8.849137650596390972e-03 -2.657041578011026806e-02 -7.004958531044885514e-03 7.159817162165103138e-03 -4.357925734511877876e-03 7.472120028373112517e-03 -1.042310547868913195e-02 -6.137242667853693573e-03 -6.522637126754508331e-03 1.539604575961281072e-02 -2.799679912752779838e-03 1.020975551126172658e-02 2.254083733275223655e-02 4.589673369190430674e-03 -1.021684431634473089e-02 -1.834111273288352786e-02 -2.592744979610985771e-03 -1.145194518645692265e-02 -3.343254574394669779e-03 -1.426400191875846525e-02 -7.421375480385637756e-04 -2.204280628346421550e-02 -1.749313403189168420e-02 -1.705128542348041676e-02 -8.647087849445322591e-03 -2.541164723850394824e-02 -8.406829272389282348e-03 7.159752908940192340e-03 -1.426780357955993034e-02 1.018778409623117241e-02 -2.017931794332428197e-02 4.189899719745591652e-03 -5.966053211641340545e-03 2.125932674402165878e-02 1.285750121913489460e-02 -3.352779133188462605e-03 1.840638209917556944e-02 4.683212346010875299e-03 2.194313568792722810e-03 1.216211470055925635e-02 3.066124215060276811e-03 -4.197925915432668392e-04 5.535059941825533521e-03 -4.292279790296302223e-04 -5.718068952958657060e-03 1.138552660982398816e-02 -2.753473464939736222e-03 9.345604643436089543e-03 -3.656000246608847454e-03 7.284904646691521546e-04 -2.588583860967679992e-02 -2.292191541740084496e-03 3.350748986974007911e-03 -1.766996158219778486e-03 1.703548863869304257e-03 -1.506954456093261875e-02 2.530732985571107745e-03 2.915225137669620516e-03 1.207043388430622914e-02 -8.848420166566013656e-03 -3.060596805817741590e-03 1.984577511939204439e-02 -8.880199521254293279e-03 -4.335528485627059350e-03 1.030926243939151582e-02
-5.225423317841025074e-03 5.754928497449225341e-03 5.613972719457641959e-03 1.668172856536434892e-02 -3.557708107743859870e-04 -7.008232576437947378e-03 4.032502070744631165e-04 -1.131031686875975072e-02 1.729407520493706288e-02 1.345890944772242317e-02 5.244467981096978884e-03 -1.412248274857719893e-02 1.001386262885927553e-02 1.158234981482845517e-02 -5.415750223010695405e-03 1.909100923261585619e-03 -4.504547644418699197e-03 9.537231074979377055e-03 1.352389368200147303e-02 6.588692636711732109e-03 1.210693082646528695e-02 -2.927979719982043861e-03 -3.946735750368892065e-04 -2.346032738783739762e-04 -1.760866553443083196e-02 -1.860993914328230121e-03 6.223322534148791052e-03 -4.052513629389849366e-04 -1.605185603796562693e-02 2.847129115290818451e-03 -1.279276529980282254e-02 2.788106259598764191e-03 -4.633110083937513370e-03 -4.084919705493616007e-03 -8.001305960650456975e-03 6.562636816686449534e-03 -7.011383269869232368e-03 -8.094539802581238218e-04 1.097555504850054701e-02 -1.154596464310411914e-02 6.484578666869428125e-03 -1.559041414714246176e-03 8.685875371960569136e-03 -2.307667108613306887e-05 -8.903898070185444630e-03 -2.250998477316057487e-03 1.695246357017527253e-02 1.741058079104207054e-02 3.276201407056633912e-03 2.060506543317971052e-03 6.068144872264830819e-03 -8.406530715687428323e-03 3.259619262025457379e-03 1.160043334979381224e-02 -1.035391231754658782e-02 3.887111954902888484e-03 -1.098711393653248672e-02 -1.231822410944900630e-02 -6.282648052399948148e-03 -5.948876248339229032e-03 -6.988744130778420070e-03 -8.528714819934266056e-03 -4.731938246526444861e-03 1.710556215925233131e-02 1.223161789353153887e-02 -9.344696272595620981e-03 -2.858423544094493545e-03 7.448930413171476507e-03 1.920559754886662471e-04 -1.069672624437308789e-02 1.046250873080925223e-02 -2.169162820434966145e-03 7.737923825899416415e-03 1.655692431770977233e-02 -2.638201361850045848e-02 2.897898318995308781e-03 -1.475502310674937012e-03 9.362832239685169033e-03 -9.579588560277844294e-04 4.435553190708711908e-03 -1.504797635358805057e-02 2.137899506846209063e-03 6.295050014854518608e-03 -6.318760151907880894e-03 -3.918004227190192978e-03 -1.024048262093548963e-03 2.467673641189743316e-03 -4.744891520583677073e-03 1.085423228001247166e-02 1.999351394495540253e-04 2.099963986615954736e-02 8.785597110680666913e-03 9.784365613957245883e-03 -1.350965597552793683e-02 8.344307149437062143e-03 1.858181118224267944e-02 -4.834008887870919896e-03 -1.206930398932663275e-02 4.732220406695553626e-03 5.638243171348455637e-03 -1.978525843052662825e-02 -1.011551725569925439e-02 4.135820398275384668e-02 7.947812068875657193e-03 8.480128776601513971e-03 4.107356161397946598e-03 -1.006614206412641179e-03 -7.512436400779843280e-03 -6.853707190186434858e-03 -5.341359326084114088e-03 1.502365835867004035e-02 2.003002018498155519e-03 1.104284729214197527e-02 1.492176070058026487e-02 -1.795397430398526506e-02 9.160871650096272939e-03 -7.134856209436609732e-03 3.497609029134977898e-03 1.081783117553643259e-02 -9.717934085612584851e-04 1.374470990002586365e-02 2.217575682416036975e-02 1.215559495565495841e-02 1.542693254316788130e-02 -1.242696281096988299e-02 1.522829771100827831e-02 -8.937875791016244278e-05 -3.242649960088293815e-03 -2.776106200038765907e-03 -8.754651473649290375e-03 1.067035675081840634e-02 -1.201459910397042466e-03 2.114321419950524611e-02 5.788320659512175351e-03 4.084222202144971101e-03 1.947355506262032085e-03 2.915557129710575224e-03 2.602245449840326005e-02 -2.371433801153925713e-02 -7.383292864001982439e-03 7.445570962608647619e-03 5.787343569382539295e-04 -5.341184198238015969e-03 1.520408800566225814e-02 -1.126812292072226947e-02 -2.322559376247093892e-03 -3.222296116573023297e-03 9.293085806701410073e-03 1.527585063775491539e-02 -6.867340090772221760e-03 -8.402374589789806184e-03 1.149197909028171899e-02 -8.654871355877050880e-04 -2.872389754555581143e-03 -1.173315554896623043e-02 6.036727454200302781e-03 1.515314318681802198e-02 4.245372106661078268e-03 1.233547889034770050e-02 4.843022936513022292e-03 1.443662237174609363e-02 5.296606353030568898e-03 2.729265006406352348e-02 -1.368107879233127194e-03 9.715904731701925645e-03 6.492033383490760767e-04 -3.288647743305722106e-04 -3.421365082191164461e-03 -7.869243853029197350e-03 4.505039315320358978e-03 8.066689889701382163e-03 -2.575578177947628229e-03 -2.039359342923750817e-02 8.747984636351013865e-03 6.224941250148735387e-03 -4.113917261831771138e-04 1.445545130528041490e-02 1.367329915804317564e-02 -3.034893436925532526e-03 3.152869170143382440e-03 -1.035089160060523837e-02 -1.301701679658540112e-02 -7.003303604071415070e-03 1.642368001019603105e-02 7.977872074679219841e-03 1.374356655398660705e-02 1.878006707212948739e-02 2.047010855560979850e-02 2.383354969958092692e-02 -1.872797413130454156e-03 -1.547576980246037279e-02 2.247003978884063238e-02 -2.198864623159407436e-02 2.730403438086336908e-03 -5.043444667232580177e-03 6.535775414515236116e-03 -4.075025285383300673e-03 7.585952003409511145e-04 2.849239450011600838e-02 -2.616813744598026417e-02 -1.603449394607024681e-02 1.556758680026699461e-02 1.128217705043941047e-02 -5.190491141911540013e-03 1.240610387702303571e-02 4.586157658049095677e-03 2.272333752260908765e-02 -1.638387206089994726e-03 -6.175938820754801536e-03 1.393748390509234533e-02 4.661243956185640892e-03 -8.116181898338840905e-03 1.108033474011874651e-02 -1.036824670851801185e-03 9.772881450213608337e-03 -7.044248650317746618e-04 1.692812296164701190e-03 -2.334421456638342742e-03 -8.451520239271965431e-04 -1.269213476510806099e-02 -2.249800457468239222e-03 1.787994950171782269e-02 1.297175420904226814e-02 -1.000687407457146079e-02 1.285721310166976217e-02 -2.528760927885138204e-02 5.049045423307253234e-03 4.446274496080390368e-03 3.244486176264670813e-02 -8.527007847478122043e-03 -1.330406482272725698e-02 -6.084863179496088383e-03 1.061197170484512800e-02 2.089283703708538428e-02 5.678717368201761408e-03 7.626804937556144748e-03 4.285087532509100974e-03 -1.577537772363491256e-02 -8.297510286135709873e-03 -8.304542402157838107e-03 1.066780882982595186e-02 8.269779985682417303e-03 6.025024022719723156e-03 -3.626589137634756398e-03 -2.114065910818366256e-02 -1.989261020007107930e-02 6.070071357245313860e-03 4.723804125557969254e-03 -2.584172953877036851e-03 -1.505243903598140831e-03 4.364296334878112584e-04 -2.828357751410415320e-03 -4.176757569719615794e-03 -5.909959532008792274e-03 -1.117649528141135412e-02 -1.608328777882408675e-02 -1.918272578080756604e-03 -7.293046611762898229e-03 8.000348170380800622e-03 5.483793483773937404e-03 6.523218120033439900e-04 1.661013050424611434e-02 3.075712311769679061e-03 -1.730379180656654858e-02 -7.665074312532515512e-03 -1.571602524424006025e-02 1.151973964746038498e-02 -5.111198114328648935e-03 6.533153150966279502e-04 -1.881158852066538295e-02 5.955010461511706620e-03 -6.770299968659789121e-03 -1.939092750606031743e-02 5.720376621109942447e-04 -3.065055915281814872e-03 -1.648716962504122308e-02 7.806369491752431812e-03 6.030696287656714741e-03 -1.374053036561992446e-03 -6.006993985895241715e-03 4.686102879219075298e-03 2.013767658004696811e-03 -4.614455940232621090e-04 -2.655319165834979164e-03 5.004162726438936282e-03 -8.255127910440517372e-03 2.372689263733035112e-02 2.600608649558422067e-02 8.735217049380968046e-03 5.253216923250252079e-03 1.460973926349032163e-02 -8.271680980324746732e-03 -3.853250143377619143e-03 6.742399986256206526e-03 8.885089198464321894e-03 3.563291945863284512e-03 -2.312685038155396985e-02 -3.751650152494940757e-03 1.736255032555825790e-03 -5.661688789721347134e-03 -1.665494209063939426e-02 -1.318357492591739309e-02 -2.204366464123928490e-02 -1.609460242536460374e-03 -5.262067784297599568e-03 2.200985866047605599e-02 -2.560541248229826830e-03 2.261093274133327193e-03 7.046241747090884779e-03 -4.855057940984743221e-04 -5.593568604282138368e-03 1.197323893821437141e-03 -3.886929402651389566e-03 2.243343219310744638e-02 1.767061587655773761e-03 7.835272569336956816e-03 -6.692381409075019369e-03 -3.930620814025768787e-03 1.276200572788830680e-02 -1.122817736203473096e-02 -1.636996004287383927e-02 1.593055531084740239e-02 -9.548376550990611555e-03 1.542721076961178599e-02 1.677236601452164813e-02 3.014751104476082275e-03 -9.182054984353732463e-03 -4.459791409139398852e-03 -3.145278008975153135e-03 -1.501988370815286397e-02 -7.750104573298421604e-03 -1.032010004655582562e-02 2.182120798892798683e-02 1.425136670107926638e-03 1.896028060984297076e-02 -6.342183171176446217e-04 7.618047640987948670e-03 6.382300970586523084e-03 8.778864667313748468e-03 -1.066960928686699374e-02 3.061123507744521396e-02 -1.229658239336125884e-02 -6.643517426236325574e-03 -4.272025290571746826e-03 9.523462568704573784e-04 -8.521058193970599756e-03 -1.702109015591594249e-02 -1.953647427903910244e-02 -1.484250206998813208e-02 -5.150080558491200791e-03 -3.632835744069100661e-03 4.536336366786425205e-03 1.555949131377119994e-02 8.688206110314920523e-05 5.438208960311941877e-03 -7.935118685011312550e-04 -1.231394058126818051e-03 -2.877461114251778172e-03 1.664114412903669547e-03 3.885237401714563242e-03 -1.442045046501089526e-03 -2.597170412022713551e-02 4.749669877548929123e-03 -2.962470703983479184e-03 -4.692312268151151156e-03 -5.020282945228857468e-04 -1.820160768994382935e-02 6.329132776053751110e-03 1.384194607379911693e-02 2.272013193498940639e-02 -7.534703836830110649e-03 7.814045577903725240e-03 1.734090915757864615e-02 -1.560075184673002935e-02 -4.325416744759201688e-03 -8.800494597898536955e-03 6.147273534449826382e-03 -1.178388798628308108e-02 -1.660320968895063315e-04 -2.254612273747490930e-02 -1.449477498011035419e-03 2.375630978377518427e-03 1.102581711342250428e-02 2.186653359861689613e-02 -1.544630070269608149e-02 5.552225600059730246e-03 -4.687259961184095901e-03 7.608969036390421208e-03 2.152399277276484044e-03 2.666423044854782879e-03 5.846728006739286901e-03 1.319383370181393192e-02 -7.752523848328809856e-03 3.452517334390260164e-04 -4.990265438124186041e-03 2.820812556643480674e-03 1.161399520859497138e-02 -3.564504760753880921e-03 8.757379352347355317e-03 1.264999700522371692e-02 6.846920011414676759e-03 1.156150989553068713e-02 -1.288528256770614389e-02 -2.261200334848468413e-02 1.209378837939513668e-03 -4.460561254151324158e-03 -4.934432152338585204e-03 -1.401093331257507709e-03 -1.479572362905352649e-02 1.092943778696014653e-03 -9.504405915449964590e-04 1.071719774495375442e-02 1.720813939179442406e-02 6.964193055843824823e-03 -1.303145488618026940e-02 -2.299829687252273255e-02 1.628929594390826976e-02 -3.815682206544462884e-03 -1.146233459389859894e-03 8.896882834821234765e-03 -5.053761926238467365e-03 8.565390810872031829e-03 1.340230663691248034e-02 -1.969663510246608823e-02 5.257130841375480838e-04 -1.285446526118567967e-03 3.835345863059474569e-03 1.524115322481259249e-02 8.717103219529528371e-04 3.913445953009093829e-04 -1.638818987687434142e-02 -1.104792061486357078e-02 -2.173806075511610768e-03 -3.704244555100276275e-03 -1.877425346748154075e-02 -1.363929488605114754e-04 5.467628398677874986e-03 -1.391949634556526212e-02 5.664312358951885049e-03 1.271663010088168108e-02 1.048736872316458589e-02 1.245502709536828057e-03 9.102724623258085304e-03 2.861275938953726852e-02 -1.212388908918311456e-02 -1.092543632647312822e-02 9.220500163838758062e-03 -4.606639461982161773e-03 1.318675696162999178e-02 -1.179997667056098543e-02 1.405585533859517351e-02 -7.478455594707211600e-03 4.582396696267279808e-03 -1.565778238757923810e-02 4.350349088979954364e-03 1.676045803990590388e-02 1.244741759650167673e-02 5.500818414189427748e-03 -1.251203550316203235e-02 5.128088956125161947e-03 7.440301549997680938e-03 -6.100686775269437969e-04 1.419801563520538441e-02 1.312488613901456906e-03 -7.210052668335771922e-03 -1.224544771993539387e-02 -5.108278484980490614e-03 -1.072567315011036838e-02 6.053179862692291413e-03 1.436746904964325555e-02 6.517107243494866045e-03 -1.753915398943183684e-02 2.253566066673773089e-03 2.082930121758369210e-02 5.347524443072951793e-03 -1.461218434368771746e-02 3.235477977513260498e-03 3.530590780471356497e-03 -6.293230338044367156e-03 -3.359572894398808393e-03 -9.473338563487884376e-03 -2.457591231131338750e-03 -9.499803938791335708e-03 -7.298888174075275799e-03 2.712079650960652188e-03 2.812530979825320857e-03 -5.276498896922309986e-03 7.355419295354916065e-03 -1.365176731088783152e-02 -2.442062588335842336e-03 7.175759478397940490e-03 -1.664920288210374908e-03 3.955218554218017761e-03 1.387968408103629897e-02 1.715314587336010674e-03 2.679960814214130127e-02 -3.627775522934667974e-03 2.817621390044058871e-03 -3.677912639897430377e-03 6.282700644190257130e-03 -5.618769359614284552e-03 -1.521826464791570244e-03 8.007713732251729374e-03 1.950906502281936393e-04 -4.087664504896324803e-03 -2.057195206977614765e-02 6.490550640473506140e-03 -1.145209749516077485e-02 9.556700079458862671e-03 1.614748577603624530e-02 1.856952134267489049e-02 -6.736799139348522217e-03 -3.178071405298499384e-03 1.266852138264602974e-02 8.151575165512375820e-03 -2.082362830207701646e-02 1.122678255580392831e-02 -2.849027346856511378e-02 -1.250692706386525091e-02 1.366705828796147557e-03 -9.465181794511074581e-03 -7.623770709136678397e-03 -1.708364412730192447e-02 -1.200901992501511237e-02 2.609331944838382336e-02 -2.460251864676157385e-04 1.640660696373479055e-02 -3.938115930817372677e-03 5.244284051223967007e-03 -1.486461092044980524e-02 -7.555704022404794058e-03 -3.981199218676474867e-04 -1.249114207410666720e-03 -8.930959380788123722e-03 -6.519880899782622141e-03 -6.302569233003625995e-03 8.988171391064765300e-03 1.526215154304873083e-02 1.206415792061062489e-02 2.053519381801036710e-03 -6.740650438576330575e-03 -8.824663539837070830e-03 4.080964742793106829e-03 1.062800973401382531e-03 -2.087199061838681396e-02 9.354347713372110351e-03 -3.402108333676263745e-03 6.895900156128047936e-03 5.055827777024478331e-03 -3.028882956015819996e-03 6.768927220779768703e-03 1.598167729187351810e-02 1.492661552995296938e-02 6.726000496489394076e-03 -5.566794973264309332e-03 4.086687104394914026e-03 2.244386810337237886e-02 7.787263809444604223e-04 3.269946552925556606e-03 -1.706466873460913553e-02 -5.162486847034309864e-03 6.951076397959213803e-03 -8.096087407335838745e-03 1.897791551528880960e-02 4.083416073058410319e-04 5.241591034202549952e-03 1.107014231115331995e-02 4.576830867397184942e-03 1.064700720878111913e-02 3.343965151862627791e-04 -1.486041230219900186e-02 9.461944171270074422e-03 -4.066836793068491843e-03 -1.341393973876240037e-03 -3.391885860582991886e-03 -2.594499132178295329e-03 -4.875670370290101016e-03 -1.036053476865963531e-02 6.133980737574086690e-03 -1.082485994254099061e-02 1.309946136002553864e-02 5.640616783795532156e-03 4.025064883486317163e-03 -5.952502164905709887e-03 3.514227121672294177e-03 5.314151837390355222e-04 1.670778403755291503e-03 1.243453755894435159e-02 -2.398889179989309017e-03 -1.707412857040998405e-02 3.717352736720092640e-03 1.443248316408542436e-03 -1.653818973635141085e-03 -7.561725869232227039e-03 -7.451512714996078382e-03 -3.400082401845235924e-03 1.733052940389190333e-02 6.591728319392773120e-04 -1.145708657975594291e-02 -1.625445360674268938e-02 8.427177290451857983e-03 -9.392658967933150641e-04 9.494596242201016245e-05 1.192191998646452422e-02 -1.850254641477088585e-04 -1.744616142448099155e-03 1.301392303529612729e-02 7.037864478452072678e-03 1.851495254486544909e-02 2.233853423507279820e-02 1.448653956030405499e-04 5.494014405155845694e-03 -3.531780026930406245e-03 8.242954272653559705e-03 -1.294412257341290631e-02 2.232489627954404069e-04 8.469996837532857772e-03 5.769341640349151838e-04 -4.861978740698703200e-03 -2.619211276406633020e-03 1.481655400410129136e-02 1.565183655091764367e-02 1.787985513339024031e-03 1.779971806004868517e-03 8.369871593336641836e-04 2.477378543662566920e-02 8.509401247386036773e-03 -5.825511167257695772e-03 -1.320770956231467723e-02 1.457727900300929968e-02 -3.587055339486357446e-03 1.637165214861518309e-02 -2.447715856997821713e-03 4.958715241701917853e-03 3.001616560571002297e-03 1.500912377396381803e-03 1.245377533295454094e-02 1.005503491686329798e-02 1.420652530414056973e-02 -2.222480683328116515e-03 -1.572999999645447247e-02 -5.616278614593892861e-03 -1.167448122966949567e-02 -1.844551081440419776e-03 -5.690956645638015760e-03 1.424711210134277199e-02 1.372296339310663830e-03 1.736335748861055420e-02 7.451039999871670282e-03 3.021746241147569428e-03 -3.036004517848028047e-03 5.842662407217762317e-03 -7.920276100260331686e-03 -2.001362253008051595e-02 -9.047711409404246563e-03 3.661270169233270082e-03 -7.154425664547680620e-03 -8.190497553426989708e-03 1.304648631404575071e-02 2.082463511383311240e-03 -1.134629324578462125e-04 4.671046753608868764e-03 -2.705804804003895600e-03 -4.543462859966517983e-03 2.458445952997339971e-03 -3.000060504272912196e-03 -2.515001951416548625e-03 -7.965382926878926059e-03 8.675735449887904882e-04 1.513698703260674128e-02 -9.179017098660494089e-03 -9.097781810920442871e-03 -7.669122075206523739e-03 -1.396579999371151161e-03 2.383908403177397405e-03 -3.202981566936022144e-03 -6.136648414292867997e-04 -1.606243176309146356e-02 6.630228345254756371e-03 2.140669905745548867e-03 5.915829448697143729e-03 -2.488062864050343947e-03 -2.583538027728713923e-02 -1.773189958841544719e-02 -4.044284649919750708e-04 2.205732069872929496e-02 2.379247528260741359e-02 8.042592463363843272e-03 -1.229055743730576855e-02 -1.060725387222809062e-02 3.545405361044585459e-03 5.197283062999869668e-03 7.056545494035353430e-03 -1.178814542225074813e-02 3.907004742230656656e-03 -7.901648649511438388e-03 9.262708398429160897e-03 9.035968723472303024e-03 -1.369813797832760902e-03 -3.780955273564072343e-03 1.436153549099109319e-02 -8.624144071330422726e-03 -4.397617042332907511e-03 -5.464627645081575509e-03 1.288411007428223558e-02 -6.806754271886679766e-03 -1.734042309378731536e-02 -1.875162819006956708e-02 1.879073449345067259e-02 -1.868061321220030810e-02 -4.478177505086666788e-03 2.230930208801705419e-03 -3.086170724756540432e-03 9.453978693846495918e-03 -1.648421297009102990e-02 -1.362080464503231600e-02 -5.392023113637653018e-04 1.752705955961439063e-02 1.039190348742765273e-04 7.849789525103404580e-03 -2.946693023869164686e-03 3.512951765016257642e-03 -1.551661860855766718e-02 6.964233297981491273e-03 -4.908431977579769297e-03 -4.712803988170205169e-03 -6.117302424310976788e-03 7.567665684888356427e-03 -8.276538163574687383e-04 2.689648582783975977e-02 3.894040214640880244e-03 -9.668906128390482605e-04 -8.808980662739256812e-03 -7.797876975424378014e-03 9.279360742183679700e-04 6.217632102367560672e-04 7.870735844956235419e-03 -1.414376703573147313e-02 1.108566181282461156e-02 -4.422484686127853282e-03 7.280485143727630226e-03 3.884114362599957581e-03 2.368338197598026263e-03 -1.303315902238537903e-02 -7.984210513053114147e-03 -1.485433961820173572e-02 -3.433701310839418815e-03 -1.597692591968277037e-02 5.104441079193673680e-03 -5.788322673643600362e-03 -7.326819730859102445e-03 2.472854422029113503e-03 -1.508817601992053052e-02 -1.376895344379728235e-02 -2.797786972150395624e-02 2.370109261895568618e-03 -4.764665707092875964e-03 2.057457502370671487e-02 2.952934297850593522e-03 -2.551451628970715160e-02 -1.933549836578902018e-02 9.323559475355744711e-03 1.498146338887359000e-02 -1.106110704753249241e-02 1.534285093013005967e-02 9.889850048388394363e-03 1.164234908658998147e-02 -1.325664357585567069e-02 -1.943158024241099097e-02 9.864020103001927553e-03 -1.382223785499330469e-02 -4.286978122001506436e-03 1.351469542582928174e-02 -2.621303317206568912e-03 7.855457917946402635e-03 1.727857846191030097e-02 6.592030395603773289e-03 -9.469306076166631629e-04 1.743758062781574627e-03 3.593935161793842571e-03 -1.230711503283835224e-02 3.146434636312690075e-03 -1.227167966803952535e-02 -3.550681128938033837e-03
5.083728659076781030e-03 3.867445614598116928e-03 -2.347050485615466420e-02 -1.370704543038266804e-02 -2.174596776061681752e-02 -1.121703917074499610e-02 -4.962076492320637543e-03 8.460161606765407780e-03 7.289608923315762760e-03 8.748185166057548907e-04 -5.060613592816379583e-03 9.377027014537046932e-04 8.894482335254128708e-03 -3.413730785674344830e-03 9.798878577165081802e-03 -7.259642550266801053e-03 1.304029815759341973e-02 1.553171622593529574e-02 -4.599144382554762496e-03 2.332284984786422120e-03 -1.536076897302288656e-02 4.626648645861788228e-03 -1.333665910128455610e-03 1.415716481058833633e-03 5.619668487396243563e-03 2.486485697565007577e-03 -2.955032370716318552e-03 7.643725484484310828e-03 5.906264747460375324e-04 3.900932232977025443e-03 -6.749803427865989566e-03 2.215140418738127670e-02 -5.683346319512528125e-03 7.181586158173665357e-03 -2.237673541426838178e-02 2.111320672746300545e-02 -1.618860046506103573e-02 -3.395044430316524549e-04 -4.715574959608924595e-03 -8.571121681371094217e-03 7.668687279757725218e-03 1.787230891413105552e-02 6.347714167393286042e-04 4.656550078724990688e-03 1.647663460437916172e-02 -7.051256284783449096e-03 -1.135335000514909980e-02 1.773601006405386982e-02 2.522639968016828285e-03 3.423151905855431609e-03 6.819344557221555109e-03 -1.928899713600851218e-02 3.826812595770771007e-03 -8.896921688339923381e-04 1.232947948258794439e-02 2.321821726798021460e-03 4.115684095022194636e-03 -3.393822368089367478e-03 1.913041894255277861e-02 7.584973901040120182e-03 -1.688601293033411069e-02 1.899099687557454993e-03 1.596996494367186950e-02 -4.363794350613652744e-04 1.339734991514045410e-02 1.147676283591793529e-02 6.512159291528409923e-03 -4.689287879448686934e-03 2.079725776194192230e-02 1.962583055454497714e-03 -2.028245089371578935e-02 1.188947537277073273e-02 3.574268998710308700e-04 -8.164347479354011963e-03 -5.427960593772967329e-03 1.947086649260760041e-02 -2.747217284641532173e-04 -2.216846243423105031e-02 1.143711017721815194e-02 -4.876677559672181264e-03 -2.182870000226122889e-03 1.257569266123076531e-03 -1.644321127293802256e-03 1.517553940347676593e-02 5.442587631494509928e-03 -9.793010160978341330e-03 7.607599655713363426e-03 1.605767343502716160e-02 -9.493079082490153350e-03 2.502960590660630383e-02 7.739747434499058207e-03 1.950314255832862748e-02 2.048253041203978650e-02 1.750754374329805546e-02 -3.734469642485057153e-03 -1.310228606005620251e-02 -3.393514728350318678e-03 5.990756707424076642e-03 -5.608043902501842412e-03 8.957645959185694604e-03 1.921549832529314628e-03 -7.581976286847592374e-03 4.073117572901492969e-03 7.733272831404784664e-03 7.529513290018464804e-03 1.880888981727640505e-02 7.163853898841671640e-03 -2.911066298539605537e-02 -2.240024155933743530e-02 9.361183587840365278e-03 1.143943630245758229e-02 3.171208023079381735e-03 1.336265969991595574e-02 -5.179876641718923584e-03 1.598191500895524385e-03 -6.614241752395473919e-03 -1.288684785003150687e-02 5.762947475797000575e-04 -2.330363566269786930e-03 2.075160115795808558e-02 1.490002373802528160e-02 7.233245023824606476e-03 -1.572121464735263055e-02 -1.207865507242333446e-03 -6.483673641576045456e-03 -2.098465205285932750e-02 9.241102899905258988e-03 -2.898374106888629894e-03 -9.100282168791018825e-03 4.625558646383191863e-03 -1.604315583523596711e-02 -4.086726514330943230e-04 -5.506729141576340199e-03 -1.425615386716849731e-02 2.147297884400092491e-02 -5.487898035061013723e-03 -9.352788364570450985e-03 6.262738845893409470e-03 2.227538561756832458e-02 -4.115873983296395623e-03 5.897023494507229804e-03 -4.960220578523285261e-03 -1.154318841762694628e-02 -8.545724572883961175e-04 -2.597979588987183504e-03 -1.154534889117266386e-02 1.631617706376181642e-03 -7.668913722251789918e-03 -1.199630317077708674e-02 -1.274570361302893029e-02 -8.375378056746256294e-03 1.761886951200904768e-03 -2.875834792409520668e-02 -3.627303732244176876e-03 -5.995765007417185911e-03 3.846018985400894222e-03 -5.507101347557972343e-03 2.902935345692444439e-03 4.207854559882468100e-03 -1.253536688208159791e-02 -1.122999125288501538e-03 -9.679307047071677994e-03 3.335636172478171940e-04 -3.719776098801442447e-03 -8.673704551407193306e-03 8.373060637846605272e-03 -1.129501179795279562e-03 -1.786043784274631702e-02 -3.932863403691954848e-03 -9.943653740285720091e-03 -1.334645031734157158e-03 -1.307623763751578939e-02 1.250566385025766959e-03 -1.547977727957670739e-02 7.195803057847853859e-03 4.334915019890596063e-03 -1.281975698697207684e-02 7.236368805827817635e-03 -1.430594406713486637e-02 -1.313389255509374992e-02 6.757120338514050265e-03 9.405029172156683520e-03 -1.119532105764743657e-02 -1.163834834142555251e-02 -2.268805758196981259e-04 9.977954417680463817e-03 -4.293871786363487666e-03 -6.691498815380843290e-03 -8.685002651865602122e-03 4.288580100110283080e-03 -1.077373497878619584e-03 6.199135554215869093e-03 5.300696387290730442e-03 -1.060191440322121731e-02 5.230058605715212465e-03 2.112735368939340150e-03 -1.867936077178799538e-03 9.656265107076841131e-03 9.867609082806077375e-03 -9.023541804055450199e-03 -3.538128529515141129e-03 -2.671767592156278678e-03 2.394706234745891914e-03 -6.445555237200793243e-03 -1.200330814476074578e-02 -3.802822176035148671e-03 1.867965657385688280e-03 -2.368021814613176582e-02 1.406479993555117755e-02 -1.018842468222328455e-02 -4.358694564337137548e-03 -1.645315698149463646e-03 1.240386239008921428e-02 9.607330626671075138e-03 1.119209369551895728e-03 1.431308153630800675e-02 6.193900894589754284e-03 -2.039927585720783967e-04 1.151217073783190534e-02 -2.292579785507491835e-02 2.120196727593546583e-03 1.304643398517956951e-02 1.386251283403563267e-02 3.869103374265530932e-03 -1.096361547290387699e-02 -2.794426481106774239e-03 -8.943368001805734532e-03 -1.490578309698229950e-03 9.502404694769971474e-03 -1.831572304654362346e-03 -5.432984916422478779e-03 -1.064105824454204992e-02 -4.386265374706095448e-03 3.737315131976035737e-03 -1.526061734470131900e-04 1.016847268864619173e-02 4.433470442431713780e-03 -5.284918241523170815e-03 -9.703233249075411682e-03 -2.176221772906626953e-02 6.249748051283157690e-03 -2.774528650688911236e-03 -3.531755905421586367e-03 -5.826137284517821308e-04 7.505674991902481531e-03 -1.098755610045298869e-02 -6.270506027463115025e-04 8.132037384210585168e-03 -8.031723154010159604e-04 -6.551066187201434396e-03 -3.419986071456204094e-03 -2.352646563299786928e-03 -5.448131454697624325e-03 1.040793672041443775e-02 4.008739979910748777e-03 -4.800791675153004250e-03 1.407939611758172310e-02 7.048553580520319252e-03 8.996935371943817067e-03 6.111738763321642245e-03 -5.863883189067287290e-03 1.923763355729217993e-03 -4.716206526651866779e-03 -1.181669369021966579e-02 1.005000127330186793e-03 4.530575547971547705e-03 -6.722352283778025399e-03 -4.761942946809003289e-04 -1.276724675232670907e-02 -5.035349184017969860e-03 7.275832585490193960e-03 -2.361299730043420978e-03 1.322410277306847182e-03 5.980882960652872220e-03 2.797524318187640663e-02 -4.383062962203726487e-03 -7.693439638198139134e-03 -1.923344171784231033e-02 8.618611527076150067e-03 1.104958510274619068e-02 -6.626841988117800758e-03 -6.662216240608875156e-03 -1.937471036486274794e-03 1.215157050108672115e-02 5.010347004036781390e-03 2.053678203590778538e-03 6.860428912126911340e-03 -6.902060267336476533e-03 -1.528562681117161389e-03 -1.096029247905259268e-02 -2.429653582876051179e-03 1.976141461025815102e-02 -1.103768079420343676e-02 -1.334642562694693564e-02 2.255134117210088468e-02 1.145255029947884638e-03 -7.818892525994585591e-03 8.243218858919411363e-03 -9.205861549283373205e-03 3.826014912333813942e-03 5.202218989401885714e-03 2.304858781624030337e-02 2.073707114128305745e-02 9.318003513417751071e-03 5.341333243381202536e-03 -5.061712317291666360e-03 1.256112828183629515e-02 6.406533999584659682e-03 -4.877548749327313519e-03 -7.655096023533035018e-03 -7.892933460979150231e-03 3.985414956558307881e-03 9.826170986199790191e-04 -8.125954629702109369e-03 -8.274432629237722658e-03 7.309040551709319877e-03 -2.885494545360776236e-02 5.620582159342021183e-03 7.934720083709956642e-03 8.546739266823288536e-03 1.605889160782042469e-02 -6.845708187789274410e-03 1.810198879470869453e-03 -1.715831468748042418e-02 3.131672777107655410e-03 -1.040983346026655258e-02 -2.226504428552366580e-03 4.087642577797490247e-03 1.113562804117710150e-02 -1.459985504109569468e-02 1.180965929317214121e-02 7.464330541085066432e-03 6.334867024586880377e-03 -1.988638869559644640e-02 8.858264478013969144e-04 9.201773384229262887e-03 -1.465408713680180393e-02 8.068794023178196134e-03 -1.831531322822397244e-03 1.172237486582690738e-02 -8.584228255926544884e-03 6.253978495496618877e-03 1.345904689827832966e-04 -1.338403033960250139e-03 -9.503985034972611129e-03 1.273218963935906708e-02 -1.407756692721832178e-03 -2.228273137208684317e-03 3.728289120098413935e-03 -3.855312084536118185e-03 2.997016510389170080e-03 -3.324203316587681818e-03 5.916790822353547134e-04 9.725519004277887250e-03 -3.700827813139055070e-03 8.875193626135769939e-03 2.419124902686934676e-03 6.532830806794637929e-03 -1.438162834733064561e-02 -6.928595888738352075e-03 -2.186785353800970236e-02 3.871120723700685780e-03 -1.115980481008291628e-02 -1.306780165442953008e-02 1.185859157567737375e-02 4.216474510667333510e-03 -2.387771068499355397e-03 -5.086249899560389004e-03 1.269454209005704132e-02 2.182983060374083309e-02 -1.018587765372224591e-02 -2.443823800814739957e-03 -1.199674213801642589e-02 -1.864786399674192574e-02 8.822786895089650833e-03 -7.648311684992302982e-03 5.852432897919732785e-03 -1.766175277472831207e-03 8.014753354694753931e-03 -2.415253154308491523e-02 5.202015065080065406e-03 -1.099780051595292563e-03 7.668400464689314501e-03 1.981556703489668631e-03 9.989482553923696023e-03 2.722930726131097233e-03 7.374384273426518076e-04 1.395844121261291017e-02 1.124014942414397651e-02 -2.205459949382860413e-03 3.513853305668031626e-03 1.111376445169952321e-02 4.049956779818295396e-03 -9.035177839670839942e-03 2.987231189182282167e-03 2.410092358127277363e-03 -1.252666541978938314e-02 -2.930470367577430856e-03 -3.178928968105794884e-03 5.022431033058988650e-03 -1.760373980962299731e-02 1.652450903228872741e-03 -1.373584633372535412e-02 -1.807403315706252941e-02 -1.866189908799702028e-03 1.542969655143691665e-02 6.706123963127209528e-03 -2.734085336309767500e-04 -5.500646254401345137e-03 -8.267301689602973153e-03 -1.963602806137667092e-02 8.550071449396678958e-03 -1.794368049656961880e-03 -5.880846976201756920e-03 1.671604788395509439e-02 -2.575011153294279060e-04 2.053853900251021575e-02 -1.250481258478502826e-02 -3.093484832704041215e-03 -7.144745627426324526e-03 1.409685949799229865e-03 2.394683674777320327e-04 -8.444755599030068574e-03 -5.275222047573806423e-03 -7.966694443270706458e-03 -8.827062898071912078e-03 1.515700842044779076e-02 3.787167415680191360e-03 6.593074786403496992e-03 9.786840786234148742e-03 -1.964856545111683464e-02 9.883212797655256676e-03 6.233015394194045197e-03 -8.057372539328899394e-03 -1.263592904903309416e-03 -1.744805437168016338e-02 -1.089151105452151186e-02 -1.253164664291600734e-02 -3.747011686200934361e-03 -7.741133678539971474e-04 -2.926070915915292194e-03 6.295627954789446111e-03 7.571004045253949127e-03 9.958337613600223414e-04 -7.272787578711040202e-03 7.778497174351051494e-03 -2.401332895585926545e-03 -1.356965066196660387e-02 -4.847622517782637836e-04 -1.091171197642673042e-02 1.841298272152825169e-02 -3.881035450816646293e-03 -5.350869502237669273e-03 -5.963792270413584631e-03 4.994989983276938196e-03 1.070459691532696378e-02 -1.832684049020031833e-02 1.596716324344970434e-02 1.076208100890258543e-03 -4.828193045593398244e-04 -4.786476655463874595e-03 3.880558106432732083e-03 -2.024883331384580432e-02 -9.520867638615542958e-03 -3.996846687594598525e-03 -1.808735827286108225e-02 -2.359695221189546475e-03 -1.661892628899875116e-02 -9.821161691467183985e-03 -8.666974786567123099e-03 -1.879198764472689298e-02 -6.036072991376050662e-03 4.549816953134145649e-04 -9.340412391121332564e-03 -2.836259813038191635e-02 -2.728050931094942125e-03 -6.873605569543203044e-03 -9.533125540156520139e-03 -7.174689843700897927e-03 -9.804876501990673551e-03 1.780506216894877985e-03 1.252555586180214859e-03 8.786290418129118554e-03 5.611735558974479190e-03 1.655213917505604301e-02 -9.221421182095866642e-03 -7.898193554920740836e-03 5.501574353022706948e-03 5.740759244561630288e-03 1.614912604195265899e-03 -3.507680964450505569e-03 4.402620461977050682e-03 1.932651525398973967e-03 1.034959968291817960e-02 7.190056973508456798e-04 7.219822618834077603e-03 -1.293683988021419873e-02 6.941344636771207928e-04 -7.690521733610313632e-03 1.627337204428330351e-03 -1.288604571163840841e-02 1.072271434190393523e-02 1.428031058505203248e-03 1.535032298564512933e-02 1.636001722809981088e-02 9.359824947031792491e-03 -3.621385447129085895e-03 1.986669548650852463e-02 9.275201495313797201e-03 -2.783459306790300909e-03 -7.120370941926970447e-04 -2.009569061663776801e-02 1.946514469506137671e-02 3.660034418344341751e-03 8.970328243192144876e-03 -1.180776585176452308e-02 3.297436922648859601e-03 1.726928732554135551e-02 4.403044325876739711e-03 4.635786410834811730e-03 6.724901343525983843e-03 -2.909348904741036398e-03 -2.132603907442855509e-02 2.657381391714896089e-03 -3.913953973873278425e-03 1.748013410760366690e-02 -1.309632997114141932e-02 1.095152243357277143e-02 -7.208915788165562097e-03 -1.102287174880067951e-02 5.084045348054269144e-03 -1.412226502428653649e-02 -1.576070804853911544e-02 1.742747766411744878e-02 -2.680781830672045608e-03 1.096597311409411822e-02 1.574625137729552225e-03 -9.216075719836630195e-03 -2.510666745969434774e-02 7.937306114005908755e-03 -2.080559394499412879e-02 8.917387327479538855e-04 -8.825999442191756472e-03 -3.414319113364619202e-04 -1.103198221231939911e-02 -2.530642418985517075e-02 -1.003934810592915089e-02 9.338883847647116640e-03 -7.723824574565407199e-03 -7.965360812658412240e-03 -1.666662782162780035e-03 6.333114879535407978e-03 1.136564775145249180e-02 1.029579545110778302e-02 -1.073325093260488888e-02 -1.841693443281975295e-03 -5.243027093434586387e-03 -7.119133114873228696e-03 5.166332137467505086e-04 2.310424511247854105e-03 2.998376112131120440e-03 8.931772503545677960e-04 1.193163304208852676e-03 -5.700992497536429802e-03 -1.414486238814717002e-02 4.008583785762627298e-03 1.386808257562105982e-02 1.609847198445655755e-02 4.580165876391110481e-03 1.521311505278403337e-02 1.198544101751158365e-02 8.593630218049087138e-03 1.126639863173694613e-02 -1.309804305741544411e-02 -7.770062328479545102e-03 -1.003024658231783939e-02 1.763133577122929369e-02 -7.276656705184034700e-03 -5.574955214656085803e-03 -4.830550825198100251e-03 1.781644159411604686e-02 7.912293154706602494e-03 4.436460694160538655e-03 -9.658331606922063856e-03 -1.362160328601591183e-02 1.247255782053718204e-02 5.216629683152811635e-03 7.147575861078303908e-03 7.534524944208690960e-04 1.002248631401202184e-02 -6.528940646910853449e-03 8.408119493240232001e-03 1.164936570127210642e-02 -1.790380934630192086e-03 1.274314279592701250e-02 -1.226809851365037035e-02 8.608837160894940860e-03 -4.890177198448146696e-03 3.248273958339314461e-03 -1.126926505703368213e-02 -4.475552447938171627e-03 2.406246849928154324e-02 -5.555769688987547035e-03 5.838484174076484685e-03 8.683163306658626913e-04 -2.633028602007331936e-02 -3.611274465982538401e-03 -4.710477018838401565e-03 1.181656283717026981e-02 1.055818756808211967e-02 -2.627998040595276238e-02 -1.094232726650406834e-03 -6.933672009943102864e-03 3.651148168609316073e-03 3.578209910168233480e-03 -1.287892289664998267e-02 -1.217999557686554046e-02 7.751494150931610358e-03 2.666826213503102529e-03 -2.465128180234511367e-03 6.082741357073018738e-03 -2.838106519239246180e-03 1.360997776782496636e-04 1.272689581562547363e-02 -4.037428941101044340e-03 3.237690112725289272e-03 1.969075089424764287e-03 -9.939858575187084794e-03 -7.763862383565284415e-03 -7.473226953653572258e-03 -1.384541833926085895e-02 -1.721891294861212229e-02 5.802802985366170736e-03 3.564193066829092829e-03 -1.813671240826751976e-02 7.673564171742789167e-03 1.821202322609788080e-02 1.321732905142260737e-02 -1.361856715776816641e-02 -1.695557811861281641e-02 -7.344416703662732561e-03 -1.033955931320435125e-02 2.080037773857695144e-02 -1.125600431901368007e-02 4.849520279184709598e-03 -1.905282280929990321e-03 4.918082092770344194e-03 1.014086543523927235e-02 -2.295539893510749850e-03 -2.630780852000228279e-03 8.304717478992707999e-03 -1.640600879800300366e-02 -8.115428463845848067e-03 4.664257454312663656e-03 9.431317674451596828e-03 -2.178362645196639871e-02 5.178051958941283506e-03 -2.954058674451533542e-03 -9.576546837339239629e-03 -6.322343475825983883e-03 5.708241653343655402e-03 -8.452446493644516501e-03 1.002377111518744151e-03 -5.671416623417318940e-03 -6.511761956430960931e-03 1.141054253203858948e-02 1.888935478803096570e-03 -1.144855207068550158e-02 5.518918234223760440e-03 -1.186111860751836063e-02 7.338859347330764504e-03 -1.821576710788331502e-03 -2.034287005949944171e-03 -1.520596256622019742e-02 -6.282570842725312618e-03 2.085557679369181173e-03 2.107532202599308319e-02 7.049059816396310678e-03 5.149797252823043979e-03 9.960802421592772349e-03 6.591924201246929585e-03 -9.397223576988250268e-03 -2.588214096320072717e-03 2.244257021695574006e-02 -4.914646413792998075e-03 -2.617192091590787861e-03 1.833147303975965134e-02 -3.261241810409390429e-03 -1.080751012699913624e-02 -1.419470843591741360e-02 -2.037187868162071078e-03 8.312370578766155793e-04 -1.017409554530028515e-02 -1.993881532196892323e-03 1.670747045059003391e-03 -1.679923080470523827e-02 -1.927175635065518297e-02 4.256697895155826458e-03 8.474505470776379917e-03 -1.600437507211907367e-03 2.807032947446467305e-03 5.364828352261536218e-03 -3.759017358297613281e-03 7.673254040123194709e-03 1.770913558557772605e-02 -1.333483578463509969e-02 -8.842587101901756841e-03 -3.364852323267595192e-03 8.940024183971238825e-03 1.017042791355843995e-02 -1.893650325219415828e-03 1.732839878759010258e-02 1.522723228924177316e-02 -7.640675592917091710e-03 -1.466018930026609412e-04 1.679580910345715439e-02 2.215690298247848921e-03 -5.539105723143873672e-03 5.081675298309538437e-03 9.230261452461373944e-03 -7.614603528809335900e-03 2.416882459540292075e-03 7.606403316418356222e-03 9.125790500701969413e-03 -1.712028601657568372e-02 -6.987703321811936964e-03 8.842930079025614759e-03 1.361903277291319839e-02 -1.018081986030072716e-02 1.696482127467074941e-02 -2.954443000762805357e-03 -1.357145769090181177e-02 2.457958098227384230e-03 1.102930301553958076e-02 9.066706797960559505e-03 1.912719858068795496e-03 -2.192137875844344405e-04 -1.695211687707412788e-03 -8.659513416227514887e-03 -8.778773866377499388e-03 1.284881633882453862e-02 1.013465278521313503e-03 3.194977494208621829e-03 -7.799017627906940954e-03 -1.313371932795794408e-02 -2.523313101866531821e-03 3.086480604618740877e-03 -1.518726337402842748e-02 -2.643800837917060359e-02 6.272958496556331129e-03 1.104790976918894677e-02 -5.287273143648647117e-03 1.025512988756856203e-02 7.580035855461741967e-03 -4.228739179019331065e-03 -2.029905509292302158e-03 1.493354024042850212e-02 -9.781033580929874693e-04 -1.365196770846235311e-03 1.779043838761929300e-02 7.952012371431596907e-03 -2.128193870173353264e-02 9.366718907200838329e-03 -5.946215279453296795e-03 -3.798244989858994784e-03 -9.061944518938982659e-03 -6.741813496616110143e-04 -1.934554540493741998e-03 -4.072110218555841273e-03 -5.346775634826062169e-03 9.058346989687502196e-03 -1.140317442945501004e-02 3.989979054632639827e-03 -1.186386405552656946e-02 -1.255076914737830729e-02 -6.379118496103498587e-04 -7.423022357178486047e-03 -6.762597624562884449e-03 -2.894748178737417167e-03 -1.418782027047788431e-03 1.412796444984275313e-02 -1.347493846131662953e-02 9.814940696647894182e-04 -7.468971975924413795e-03
